{"learner":{"attributes":{"scikit_learn":"{\"_estimator_type\": \"classifier\"}"},"feature_names":[],"feature_types":[],"gradient_booster":{"model":{"gbtree_model_param":{"num_parallel_tree":"1","num_trees":"100"},"iteration_indptr":[0,1,2,3,4,5,6,7,8,9,10,11,12,13,14,15,16,17,18,19,20,21,22,23,24,25,26,27,28,29,30,31,32,33,34,35,36,37,38,39,40,41,42,43,44,45,46,47,48,49,50,51,52,53,54,55,56,57,58,59,60,61,62,63,64,65,66,67,68,69,70,71,72,73,74,75,76,77,78,79,80,81,82,83,84,85,86,87,88,89,90,91,92,93,94,95,96,97,98,99,100],"tree_info":[0,0,0,0,0,0,0,0,0,0,0,0,0,0,0,0,0,0,0,0,0,0,0,0,0,0,0,0,0,0,0,0,0,0,0,0,0,0,0,0,0,0,0,0,0,0,0,0,0,0,0,0,0,0,0,0,0,0,0,0,0,0,0,0,0,0,0,0,0,0,0,0,0,0,0,0,0,0,0,0,0,0,0,0,0,0,0,0,0,0,0,0,0,0,0,0,0,0,0,0],"trees":[{"base_weights":[-8.1888366E-1,-1.0065E0,7.639836E-1,1.1118114E-1,-1.0950329E0,-3.155481E-2,5.058061E-1,-7.7552885E-1,4.145571E0,-1.1432306E-1,-6.1706066E-1,4.2762047E-1,-4.3004516E-1,-1.1336155E-1,1.4443551E-1,1.6610368E-1,4.5683327E-1,-1.1400034E-1,1.755898E-1,-8.8875614E-2,2.9085115E-1],"categories":[],"categories_nodes":[],"categories_segments":[],"categories_sizes":[],"default_left":[0,0,0,0,0,0,0,0,0,0,0,0,0,0,0,0,0,0,0,0,0],"id":0,"left_children":[1,3,5,7,9,11,-1,13,15,-1,17,-1,19,-1,-1,-1,-1,-1,-1,-1,-1],"loss_changes":[2.8214648E2,8.3984924E1,3.450936E2,2.289926E2,1.7388E1,1.4978253E2,0E0,4.3436665E1,4.522217E0,0E0,9.397426E1,0E0,1.2478597E2,0E0,0E0,0E0,0E0,0E0,0E0,0E0,0E0],"parents":[2147483647,0,0,1,1,2,2,3,3,4,4,5,5,7,7,8,8,10,10,12,12],"right_children":[2,4,6,8,10,12,-1,14,16,-1,18,-1,20,-1,-1,-1,-1,-1,-1,-1,-1],"split_conditions":[2.4992378E1,4.004348E-1,5.009411E0,5.052265E0,1.2E1,4.004348E-1,5.058061E-1,1.1E1,1E0,-1.1432306E-1,5.052265E0,4.2762047E-1,1.1E1,-1.1336155E-1,1.4443551E-1,1.6610368E-1,4.5683327E-1,-1.1400034E-1,1.755898E-1,-8.8875614E-2,2.9085115E-1],"split_indices":[0,3,2,2,1,3,0,1,1,0,2,0,1,0,0,0,0,0,0,0,0],"split_type":[0,0,0,0,0,0,0,0,0,0,0,0,0,0,0,0,0,0,0,0,0],"sum_hessian":[9.464893E2,8.465164E2,9.997294E1,6.211336E1,7.84403E2,8.518404E1,1.4788896E1,5.1583668E1,1.0529694E1,7.1128674E2,7.31163E1,6.388803E0,7.8795235E1,4.483993E1,6.7437363E0,2.2479122E0,8.281782E0,6.0338696E1,1.2777606E1,6.99219E1,8.873338E0],"tree_param":{"num_deleted":"0","num_feature":"4","num_nodes":"21","size_leaf_vector":"1"}},{"base_weights":[-7.8834766E-1,-9.806355E-1,6.4041686E-1,9.500528E-2,-1.0734859E0,-4.6284743E-2,3.2345252E0,-7.429276E-1,2.9120617E0,-1.1247124E-1,-5.854977E-1,2.9535246E0,-4.1077155E-1,8.1733845E-2,3.374719E0,-1.114833E-1,1.1993798E-1,3.016438E-1,8.1302404E-2,-1.1215558E-1,1.410317E-1,3.2695192E-1,1.3279292E-1,-8.564952E-2,2.1816885E-1,3.519208E-1,8.7477446E-2],"categories":[],"categories_nodes":[],"categories_segments":[],"categories_sizes":[],"default_left":[0,0,0,0,0,0,0,0,0,0,0,0,0,0,0,0,0,0,0,0,0,0,0,0,0,0,0],"id":1,"left_children":[1,3,5,7,9,11,13,15,17,-1,19,21,23,-1,25,-1,-1,-1,-1,-1,-1,-1,-1,-1,-1,-1,-1],"loss_changes":[2.4583508E2,7.870734E1,1.8982285E2,1.5195866E2,1.7454773E1,9.4342964E1,4.7987366E0,3.72434E1,7.7949524E-1,0E0,7.746078E1,4.6118164E-1,9.064172E1,0E0,4.4196777E0,0E0,0E0,0E0,0E0,0E0,0E0,0E0,0E0,0E0,0E0,0E0,0E0],"parents":[2147483647,0,0,1,1,2,2,3,3,4,4,5,5,6,6,7,7,8,8,10,10,11,11,12,12,14,14],"right_children":[2,4,6,8,10,12,14,16,18,-1,20,22,24,-1,26,-1,-1,-1,-1,-1,-1,-1,-1,-1,-1,-1,-1],"split_conditions":[2.4992378E1,4.004348E-1,4.961977E0,5.052265E0,1.2E1,4.004348E-1,2.6351952E1,1.1E1,9.019989E0,-1.1247124E-1,5.052265E0,3.847027E1,1.1E1,8.1733845E-2,9.6200824E-1,-1.114833E-1,1.1993798E-1,3.016438E-1,8.1302404E-2,-1.1215558E-1,1.410317E-1,3.2695192E-1,1.3279292E-1,-8.564952E-2,2.1816885E-1,3.519208E-1,8.7477446E-2],"split_indices":[0,3,2,2,1,3,0,1,2,0,2,0,1,0,3,0,0,0,0,0,0,0,0,0,0,0,0],"split_type":[0,0,0,0,0,0,0,0,0,0,0,0,0,0,0,0,0,0,0,0,0,0,0,0,0,0,0],"sum_hessian":[8.915251E2,7.8604956E2,1.05475494E2,6.2458992E1,7.235906E2,8.417515E1,2.130034E1,4.870729E1,1.3751699E1,6.536672E2,6.992342E1,8.349947E0,7.58252E1,1.5420889E0,1.9758251E1,4.123735E1,7.4699397E0,1.2683925E1,1.067775E0,5.546426E1,1.4459161E1,6.144301E0,2.2056465E0,6.527248E1,1.0552726E1,1.8293243E1,1.4650085E0],"tree_param":{"num_deleted":"0","num_feature":"4","num_nodes":"27","size_leaf_vector":"1"}},{"base_weights":[-7.602625E-1,-9.568721E-1,5.6137013E-1,8.288711E-2,-1.0537558E0,-4.1772354E-2,2.4781647E0,-7.122197E-1,2.254491E0,-1.12465814E-1,-6.6864675E-1,2.3357408E0,-3.8530463E-1,7.440921E-2,2.5622947E0,-1.0979124E-1,1.0139302E-1,1.3731448E-1,2.5902322E-1,-1.0346264E-1,1.07028894E-1,2.543499E-1,2.6448373E-2,-8.257542E-2,1.739421E-1,2.6459572E-1,7.970093E-2],"categories":[],"categories_nodes":[],"categories_segments":[],"categories_sizes":[],"default_left":[0,0,0,0,0,0,0,0,0,0,0,0,0,0,0,0,0,0,0,0,0,0,0,0,0,0,0],"id":2,"left_children":[1,3,5,7,9,11,13,15,17,-1,19,21,23,-1,25,-1,-1,-1,-1,-1,-1,-1,-1,-1,-1,-1,-1],"loss_changes":[2.1826947E2,7.360315E1,1.2628095E2,1.10612816E2,1.7478455E1,6.9508316E1,1.9068146E0,3.2385353E1,1.520958E0,0E0,6.87431E1,3.9518394E0,7.092635E1,0E0,1.5125275E0,0E0,0E0,0E0,0E0,0E0,0E0,0E0,0E0,0E0,0E0,0E0,0E0],"parents":[2147483647,0,0,1,1,2,2,3,3,4,4,5,5,6,6,7,7,8,8,10,10,11,11,12,12,14,14],"right_children":[2,4,6,8,10,12,14,16,18,-1,20,22,24,-1,26,-1,-1,-1,-1,-1,-1,-1,-1,-1,-1,-1,-1],"split_conditions":[2.4992378E1,4.004348E-1,4.961977E0,5.052265E0,5.009411E0,4.004348E-1,2.6351952E1,1.1E1,3E0,-1.12465814E-1,1.1E1,8E0,1.1E1,7.440921E-2,9.6200824E-1,-1.0979124E-1,1.0139302E-1,1.3731448E-1,2.5902322E-1,-1.0346264E-1,1.07028894E-1,2.543499E-1,2.6448373E-2,-8.257542E-2,1.739421E-1,2.6459572E-1,7.970093E-2],"split_indices":[0,3,2,2,2,3,0,1,1,0,1,1,1,0,3,0,0,0,0,0,0,0,0,0,0,0,0],"split_type":[0,0,0,0,0,0,0,0,0,0,0,0,0,0,0,0,0,0,0,0,0,0,0,0,0,0,0],"sum_hessian":[8.369295E2,7.2878894E2,1.0814057E2,6.213188E1,6.6665704E2,8.300139E1,2.5139181E1,4.5971863E1,1.6160017E1,5.613809E2,1.0527616E2,9.746786E0,7.325461E1,1.6187304E0,2.352045E1,3.7873356E1,8.098508E0,5.8619184E0,1.0298099E1,8.7306496E1,1.7969666E1,8.651044E0,1.0957427E0,6.1182922E1,1.2071684E1,2.197987E1,1.5405796E0],"tree_param":{"num_deleted":"0","num_feature":"4","num_nodes":"27","size_leaf_vector":"1"}},{"base_weights":[-7.3429865E-1,-9.346683E-1,5.0048304E-1,7.5470634E-2,-1.0354669E0,-3.8640786E-2,2.0311913E0,-6.8303347E-1,1.8557773E0,-1.1110263E-1,-6.390121E-1,1.9196851E0,-3.615865E-1,6.789847E-2,2.090498E0,-1.0825487E-1,8.686266E-2,8.8643804E-2,2.002513E-1,-1.01463735E-1,9.043664E-2,2.069439E-1,2.487888E-2,-7.954268E-2,1.4369148E-1,2.2023042E-1,9.7734354E-2],"categories":[],"categories_nodes":[],"categories_segments":[],"categories_sizes":[],"default_left":[0,0,0,0,0,0,0,0,0,0,0,0,0,0,0,0,0,0,0,0,0,0,0,0,0,0,0],"id":3,"left_children":[1,3,5,7,9,11,13,15,17,-1,19,21,23,-1,25,-1,-1,-1,-1,-1,-1,-1,-1,-1,-1,-1,-1],"loss_changes":[1.9472461E2,6.889679E1,9.1078575E1,8.5337234E1,1.770166E1,5.2888977E1,8.85437E-1,2.8456787E1,9.087753E-1,0E0,5.9321003E1,2.4482422E0,5.7078754E1,0E0,1.2144241E0,0E0,0E0,0E0,0E0,0E0,0E0,0E0,0E0,0E0,0E0,0E0,0E0],"parents":[2147483647,0,0,1,1,2,2,3,3,4,4,5,5,6,6,7,7,8,8,10,10,11,11,12,12,14,14],"right_children":[2,4,6,8,10,12,14,16,18,-1,20,22,24,-1,26,-1,-1,-1,-1,-1,-1,-1,-1,-1,-1,-1,-1],"split_conditions":[2.4992378E1,4.004348E-1,4.961977E0,5.052265E0,5.009411E0,4.004348E-1,2.6351952E1,1.1E1,1E0,-1.1110263E-1,1.1E1,8E0,1.1E1,6.789847E-2,7.827673E0,-1.0825487E-1,8.686266E-2,8.8643804E-2,2.002513E-1,-1.01463735E-1,9.043664E-2,2.069439E-1,2.487888E-2,-7.954268E-2,1.4369148E-1,2.2023042E-1,9.7734354E-2],"split_indices":[0,3,2,2,2,3,0,1,1,0,1,1,1,0,2,0,0,0,0,0,0,0,0,0,0,0,0],"split_type":[0,0,0,0,0,0,0,0,0,0,0,0,0,0,0,0,0,0,0,0,0,0,0,0,0,0,0],"sum_hessian":[7.8415247E2,6.748816E2,1.0927089E2,6.125678E1,6.136248E2,8.153025E1,2.7740643E1,4.3387688E1,1.7869093E1,5.1388275E2,9.974207E1,1.0841806E1,7.068844E1,1.6886139E0,2.6052029E1,3.4744213E1,8.643473E0,3.2750547E0,1.4594038E1,8.049411E1,1.9247957E1,9.731134E0,1.1106724E0,5.7399963E1,1.3288477E1,2.2785048E1,3.2669816E0],"tree_param":{"num_deleted":"0","num_feature":"4","num_nodes":"27","size_leaf_vector":"1"}},{"base_weights":[-7.0999223E-1,-9.138101E-1,4.5205343E-1,6.869678E-2,-1.0183558E0,-3.5479244E-2,1.728331E0,-6.550793E-1,1.5739745E0,-1.0989473E-1,-6.104921E-1,1.6323271E0,-3.3936113E-1,1.7872827E0,6.506212E-2,-1.0684853E-1,7.517417E-2,1.6280636E-1,2.764274E-2,-9.954134E-2,7.740446E-2,5.0767865E-2,1.824448E-1,-7.653874E-2,1.2150913E-1,8.65834E-2,1.8812001E-1],"categories":[],"categories_nodes":[],"categories_segments":[],"categories_sizes":[],"default_left":[0,0,0,0,0,0,0,0,0,0,0,0,0,0,0,0,0,0,0,0,0,0,0,0,0,0,0],"id":4,"left_children":[1,3,5,7,9,11,13,15,17,-1,19,21,23,25,-1,-1,-1,-1,-1,-1,-1,-1,-1,-1,-1,-1,-1],"loss_changes":[1.7444144E2,6.431531E1,6.870179E1,6.758728E1,1.7913086E1,4.150584E1,7.756729E-1,2.5206606E1,9.627266E-1,0E0,5.1683037E1,1.8017578E0,4.6741413E1,8.2520294E-1,0E0,0E0,0E0,0E0,0E0,0E0,0E0,0E0,0E0,0E0,0E0,0E0,0E0],"parents":[2147483647,0,0,1,1,2,2,3,3,4,4,5,5,6,6,7,7,8,8,10,10,11,11,12,12,13,13],"right_children":[2,4,6,8,10,12,14,16,18,-1,20,22,24,26,-1,-1,-1,-1,-1,-1,-1,-1,-1,-1,-1,-1,-1],"split_conditions":[2.4992378E1,4.004348E-1,4.961977E0,5.052265E0,5.009411E0,4.004348E-1,9.6200824E-1,1.1E1,2.1050945E1,-1.0989473E-1,1.1E1,-1.1533952E0,1.1E1,2.7849306E1,6.506212E-2,-1.0684853E-1,7.517417E-2,1.6280636E-1,2.764274E-2,-9.954134E-2,7.740446E-2,5.0767865E-2,1.824448E-1,-7.653874E-2,1.2150913E-1,8.65834E-2,1.8812001E-1],"split_indices":[0,3,2,2,2,3,3,1,0,0,1,2,1,0,0,0,0,0,0,0,0,0,0,0,0,0,0],"split_type":[0,0,0,0,0,0,0,0,0,0,0,0,0,0,0,0,0,0,0,0,0,0,0,0,0,0,0],"sum_hessian":[7.337754E2,6.244612E2,1.093142E2,6.0089657E1,5.643716E2,7.980227E1,2.951193E1,4.09599E1,1.9129757E1,4.6983966E2,9.45319E1,1.162558E1,6.817669E1,2.7357063E1,2.1548676E0,3.1843054E1,9.116847E0,1.8119701E1,1.0100553E0,7.41877E1,2.0344202E1,2.2276611E0,9.397919E0,5.3909435E1,1.4267256E1,3.475645E0,2.3881418E1],"tree_param":{"num_deleted":"0","num_feature":"4","num_nodes":"27","size_leaf_vector":"1"}},{"base_weights":[-6.8695074E-1,-8.939458E-1,4.122637E-1,-1.0497063E0,-2.1016353E-1,-2.3275062E-2,1.5322535E-1,-6.0554624E-1,-1.0860764E0,1.3564566E0,-5.8139795E-1,1.4407523E0,-3.1444332E-1,-1.05345465E-1,6.868215E-2,-1.0882925E-1,-4.404175E-2,8.070143E-2,1.5801267E-1,-9.884276E-2,6.9975205E-2,1.5619926E-1,1.2726358E-2,-7.380083E-2,1.0406095E-1],"categories":[],"categories_nodes":[],"categories_segments":[],"categories_sizes":[],"default_left":[0,0,0,0,0,0,0,0,0,0,0,0,0,0,0,0,0,0,0,0,0,0,0,0,0],"id":5,"left_children":[1,3,5,7,9,11,-1,13,15,17,19,21,23,-1,-1,-1,-1,-1,-1,-1,-1,-1,-1,-1,-1],"loss_changes":[1.5671463E2,6.1400055E1,5.348638E1,6.9505005E0,6.394355E1,3.4504105E1,0E0,2.2666306E1,1.4178467E-1,1.318222E0,4.6835392E1,1.9399719E0,3.9480835E1,0E0,0E0,0E0,0E0,0E0,0E0,0E0,0E0,0E0,0E0,0E0,0E0],"parents":[2147483647,0,0,1,1,2,2,3,3,4,4,5,5,7,7,8,8,9,9,10,10,11,11,12,12],"right_children":[2,4,6,8,10,12,-1,14,16,18,20,22,24,-1,-1,-1,-1,-1,-1,-1,-1,-1,-1,-1,-1],"split_conditions":[2.4992378E1,5.052265E0,5.009411E0,3.9559913E-1,4.004348E-1,4.004348E-1,1.5322535E-1,1.1E1,5.009411E0,3E0,1.1E1,8E0,1.1E1,-1.05345465E-1,6.868215E-2,-1.0882925E-1,-4.404175E-2,8.070143E-2,1.5801267E-1,-9.884276E-2,6.9975205E-2,1.5619926E-1,1.2726358E-2,-7.380083E-2,1.0406095E-1],"split_indices":[0,2,2,3,3,3,0,1,2,1,1,1,1,0,0,0,0,0,0,0,0,0,0,0,0],"split_type":[0,0,0,0,0,0,0,0,0,0,0,0,0,0,0,0,0,0,0,0,0,0,0,0,0],"sum_hessian":[6.861389E2,5.775636E2,1.0857531E2,4.6997226E2,1.0759134E2,7.8879906E1,2.96954E1,3.690672E1,4.3306552E2,2.010284E1,8.7488495E1,1.2430377E1,6.644953E1,2.7545034E1,9.361685E0,4.3090097E2,2.164568E0,7.149139E0,1.2953702E1,6.6567924E1,2.0920574E1,1.1206755E1,1.223623E0,5.097198E1,1.5477552E1],"tree_param":{"num_deleted":"0","num_feature":"4","num_nodes":"25","size_leaf_vector":"1"}},{"base_weights":[-6.651167E-1,-8.748098E-1,3.7624872E-1,-1.0373992E0,-1.9725609E-1,-4.3353684E-2,1.3024267E0,-5.7958144E-1,-1.0763073E0,1.1945684E0,-5.547909E-1,1.2729232E0,-3.149535E-1,1.3627884E0,3.9535332E-1,-1.0412326E-1,6.0205873E-2,-1.0787114E-1,-4.2095628E-2,5.3073723E-2,1.3317508E-1,-9.70872E-2,6.084716E-2,3.461485E-2,1.4440563E-1,-7.011393E-2,8.483348E-2,3.194733E-2,1.4079547E-1,6.608408E-2,-6.888162E-4],"categories":[],"categories_nodes":[],"categories_segments":[],"categories_sizes":[],"default_left":[0,0,0,0,0,0,0,0,0,0,0,0,0,0,0,0,0,0,0,0,0,0,0,0,0,0,0,0,0,0,0],"id":6,"left_children":[1,3,5,7,9,11,13,15,17,19,21,23,25,27,29,-1,-1,-1,-1,-1,-1,-1,-1,-1,-1,-1,-1,-1,-1,-1,-1],"loss_changes":[1.4059903E2,5.873163E1,4.2170563E1,7.057495E0,5.279873E1,2.7408852E1,1.3129387E0,2.023456E1,1.7025757E-1,1.272049E0,4.126683E1,1.5810413E0,2.9088768E1,1.0251923E0,3.8032603E-1,0E0,0E0,0E0,0E0,0E0,0E0,0E0,0E0,0E0,0E0,0E0,0E0,0E0,0E0,0E0,0E0],"parents":[2147483647,0,0,1,1,2,2,3,3,4,4,5,5,6,6,7,7,8,8,9,9,10,10,11,11,12,12,13,13,14,14],"right_children":[2,4,6,8,10,12,14,16,18,20,22,24,26,28,30,-1,-1,-1,-1,-1,-1,-1,-1,-1,-1,-1,-1,-1,-1,-1,-1],"split_conditions":[2.4992378E1,5.052265E0,4.8334994E0,3.9559913E-1,4.004348E-1,4.004348E-1,9.6200824E-1,1.1E1,5.009411E0,2.7933988E-1,1.1E1,-1.1533952E0,1.1E1,2.6351952E1,3.1588758E1,-1.0412326E-1,6.0205873E-2,-1.0787114E-1,-4.2095628E-2,5.3073723E-2,1.3317508E-1,-9.70872E-2,6.084716E-2,3.461485E-2,1.4440563E-1,-7.011393E-2,8.483348E-2,3.194733E-2,1.4079547E-1,6.608408E-2,-6.888162E-4],"split_indices":[0,2,2,3,3,3,3,1,2,3,1,2,1,0,0,0,0,0,0,0,0,0,0,0,0,0,0,0,0,0,0],"split_type":[0,0,0,0,0,0,0,0,0,0,0,0,0,0,0,0,0,0,0,0,0,0,0,0,0,0,0,0,0,0,0],"sum_hessian":[6.4135803E2,5.339915E2,1.0736649E2,4.3022208E2,1.0376947E2,7.454656E1,3.2819927E1,3.4944042E1,3.95278E2,2.072997E1,8.30395E1,1.2120279E1,6.2426285E1,3.0301119E1,2.5188103E0,2.5212626E1,9.731415E0,3.931896E2,2.0884075E0,4.384079E0,1.6345892E1,6.1284405E1,2.1755098E1,2.3603632E0,9.759916E0,4.7165627E1,1.5260657E1,1.5923344E0,2.8708784E1,1.1300553E0,1.388755E0],"tree_param":{"num_deleted":"0","num_feature":"4","num_nodes":"31","size_leaf_vector":"1"}},{"base_weights":[-6.437986E-1,-8.561599E-1,3.4627897E-1,-1.0258657E0,-1.853548E-1,-2.0171093E-2,1.2159367E0,-5.54398E-1,-1.0675268E0,1.0589502E0,-5.288764E-1,1.1322558E0,-2.773683E-1,1.2812042E0,5.9783053E-1,-1.0297269E-1,5.3060926E-2,-1.07014194E-1,-4.0220793E-2,5.919081E-2,1.26304E-1,-9.535556E-2,5.324448E-2,1.3309534E-1,3.690016E-2,-6.802719E-2,7.985894E-2,5.173358E-2,1.3519146E-1,1.0099844E-1,-9.486467E-3],"categories":[],"categories_nodes":[],"categories_segments":[],"categories_sizes":[],"default_left":[0,0,0,0,0,0,0,0,0,0,0,0,0,0,0,0,0,0,0,0,0,0,0,0,0,0,0,0,0,0,0],"id":7,"left_children":[1,3,5,7,9,11,13,15,17,19,21,23,25,27,29,-1,-1,-1,-1,-1,-1,-1,-1,-1,-1,-1,-1,-1,-1,-1,-1],"loss_changes":[1.2655351E2,5.6129883E1,3.4049084E1,7.1593018E0,4.3779404E1,2.2869503E1,5.115967E-1,1.8143213E1,1.9854736E-1,1.3692379E0,3.652153E1,1.6444187E0,2.7861296E1,8.004494E-1,1.494548E0,0E0,0E0,0E0,0E0,0E0,0E0,0E0,0E0,0E0,0E0,0E0,0E0,0E0,0E0,0E0,0E0],"parents":[2147483647,0,0,1,1,2,2,3,3,4,4,5,5,6,6,7,7,8,8,9,9,10,10,11,11,12,12,13,13,14,14],"right_children":[2,4,6,8,10,12,14,16,18,20,22,24,26,28,30,-1,-1,-1,-1,-1,-1,-1,-1,-1,-1,-1,-1,-1,-1,-1,-1],"split_conditions":[2.4992378E1,5.052265E0,5.009411E0,3.9559913E-1,4.004348E-1,4.004348E-1,7.827673E0,1.1E1,5.009411E0,3E0,1.1E1,3.847027E1,1.1E1,2.7849306E1,3.4991676E1,-1.0297269E-1,5.3060926E-2,-1.07014194E-1,-4.0220793E-2,5.919081E-2,1.26304E-1,-9.535556E-2,5.324448E-2,1.3309534E-1,3.690016E-2,-6.802719E-2,7.985894E-2,5.173358E-2,1.3519146E-1,1.0099844E-1,-9.486467E-3],"split_indices":[0,2,2,3,3,3,2,1,2,1,1,0,1,0,0,0,0,0,0,0,0,0,0,0,0,0,0,0,0,0,0],"split_type":[0,0,0,0,0,0,0,0,0,0,0,0,0,0,0,0,0,0,0,0,0,0,0,0,0,0,0,0,0,0,0],"sum_hessian":[5.9949695E2,4.9373184E2,1.0576511E2,3.936211E2,1.0011075E2,7.509776E1,3.0667345E1,3.311989E1,3.605012E2,2.1208094E1,7.890266E1,1.3081415E1,6.201635E1,2.6768042E1,3.8993025E0,2.3065926E1,1.0053961E1,3.5848367E2,2.0175192E0,7.635391E0,1.3572703E1,5.642584E1,2.2476814E1,9.789207E0,3.2922077E0,4.5388065E1,1.6628283E1,2.972544E0,2.3795498E1,2.1575246E0,1.741778E0],"tree_param":{"num_deleted":"0","num_feature":"4","num_nodes":"31","size_leaf_vector":"1"}},{"base_weights":[-6.2299204E-1,-8.378949E-1,3.2059893E-1,-1.0149517E0,-1.7398025E-1,-1.7690064E-2,1.1014341E0,-5.2990365E-1,-1.0596029E0,9.499191E-1,-5.0357944E-1,1.0207281E0,-2.5967827E-1,1.1860316E0,6.6053474E-1,-9.5871285E-2,6.076191E-2,-1.06245376E-1,-3.841596E-2,7.6114155E-2,1.5810396E-1,-9.3632646E-2,4.6826925E-2,1.13128714E-1,-2.1679027E-3,-6.508112E-2,7.052157E-2,5.069336E-2,1.2681596E-1,8.360081E-2,1.1655445E-2],"categories":[],"categories_nodes":[],"categories_segments":[],"categories_sizes":[],"default_left":[0,0,0,0,0,0,0,0,0,0,0,0,0,0,0,0,0,0,0,0,0,0,0,0,0,0,0,0,0,0,0],"id":8,"left_children":[1,3,5,7,9,11,13,15,17,19,21,23,25,27,29,-1,-1,-1,-1,-1,-1,-1,-1,-1,-1,-1,-1,-1,-1,-1,-1],"loss_changes":[1.1410474E2,5.3604797E1,2.7717947E1,7.2566833E0,3.6607647E1,1.889705E1,3.9944077E-1,1.6401085E1,2.2644043E-1,1.4728794E0,3.2430256E1,1.6628904E0,2.3454353E1,7.710037E-1,6.053188E-1,0E0,0E0,0E0,0E0,0E0,0E0,0E0,0E0,0E0,0E0,0E0,0E0,0E0,0E0,0E0,0E0],"parents":[2147483647,0,0,1,1,2,2,3,3,4,4,5,5,6,6,7,7,8,8,9,9,10,10,11,11,12,12,13,13,14,14],"right_children":[2,4,6,8,10,12,14,16,18,20,22,24,26,28,30,-1,-1,-1,-1,-1,-1,-1,-1,-1,-1,-1,-1,-1,-1,-1,-1],"split_conditions":[2.4992378E1,5.052265E0,5.009411E0,3.9559913E-1,4.004348E-1,4.004348E-1,7.3535323E0,1.2E1,5.009411E0,1.1E1,1.1E1,8E0,1.1E1,1E0,4E0,-9.5871285E-2,6.076191E-2,-1.06245376E-1,-3.841596E-2,7.6114155E-2,1.5810396E-1,-9.3632646E-2,4.6826925E-2,1.13128714E-1,-2.1679027E-3,-6.508112E-2,7.052157E-2,5.069336E-2,1.2681596E-1,8.360081E-2,1.1655445E-2],"split_indices":[0,2,2,3,3,3,2,1,2,1,1,1,1,1,1,0,0,0,0,0,0,0,0,0,0,0,0,0,0,0,0],"split_type":[0,0,0,0,0,0,0,0,0,0,0,0,0,0,0,0,0,0,0,0,0,0,0,0,0,0,0,0,0,0,0],"sum_hessian":[5.603762E2,4.5651657E2,1.0385965E2,3.5998486E2,9.6531715E1,7.314686E1,3.0712797E1,3.1429676E1,3.2855518E2,2.146301E1,7.50687E1,1.3216067E1,5.993079E1,2.4350517E1,6.362279E0,2.2939444E1,8.490233E0,3.2660367E2,1.9515257E0,1.8219347E1,3.2436628E0,5.19658E1,2.31029E1,1.1871678E1,1.3443891E0,4.2875946E1,1.7054842E1,3.4009857E0,2.0949532E1,4.4046297E0,1.9576495E0],"tree_param":{"num_deleted":"0","num_feature":"4","num_nodes":"31","size_leaf_vector":"1"}},{"base_weights":[-6.0237145E-1,-8.1948E-1,2.9717198E-1,-1.0043676E0,-1.6247362E-1,-1.124752E-2,1.017005E0,-5.0482976E-1,-1.0524213E0,8.586685E-1,-4.7885516E-1,9.231278E-1,-2.3424008E-1,4.8666257E-1,1.0729991E0,-1.0089197E-1,4.3219086E-2,-1.0555352E-1,-3.66798E-2,6.825803E-2,1.4614287E-1,-9.36291E-2,3.8159534E-2,-3.9281817E-3,1.0389177E-1,-6.0271252E-2,6.259954E-2,9.118693E-2,-1.0700901E-2,4.3398604E-2,1.1707534E-1],"categories":[],"categories_nodes":[],"categories_segments":[],"categories_sizes":[],"default_left":[0,0,0,0,0,0,0,0,0,0,0,0,0,0,0,0,0,0,0,0,0,0,0,0,0,0,0,0,0,0,0],"id":9,"left_children":[1,3,5,7,9,11,13,15,17,19,21,23,25,27,29,-1,-1,-1,-1,-1,-1,-1,-1,-1,-1,-1,-1,-1,-1,-1,-1],"loss_changes":[1.0280333E2,5.1256927E1,2.2842236E1,7.3938904E0,3.0829924E1,1.5422313E1,3.9412498E-1,1.5028744E1,2.538452E-1,1.4043522E0,2.8903341E1,1.6303167E0,1.9305857E1,1.3033828E0,1.183466E0,0E0,0E0,0E0,0E0,0E0,0E0,0E0,0E0,0E0,0E0,0E0,0E0,0E0,0E0,0E0,0E0],"parents":[2147483647,0,0,1,1,2,2,3,3,4,4,5,5,6,6,7,7,8,8,9,9,10,10,11,11,12,12,13,13,14,14],"right_children":[2,4,6,8,10,12,14,16,18,20,22,24,26,28,30,-1,-1,-1,-1,-1,-1,-1,-1,-1,-1,-1,-1,-1,-1,-1,-1],"split_conditions":[2.4992378E1,5.052265E0,5.052265E0,3.9559913E-1,4.004348E-1,4.004348E-1,2.7849306E1,1.1E1,5.009411E0,1.1E1,1E1,2.5784061E1,1.1E1,4E0,1E0,-1.0089197E-1,4.3219086E-2,-1.0555352E-1,-3.66798E-2,6.825803E-2,1.4614287E-1,-9.36291E-2,3.8159534E-2,-3.9281817E-3,1.0389177E-1,-6.0271252E-2,6.259954E-2,9.118693E-2,-1.0700901E-2,4.3398604E-2,1.1707534E-1],"split_indices":[0,2,2,3,3,3,0,1,2,1,1,0,1,1,1,0,0,0,0,0,0,0,0,0,0,0,0,0,0,0,0],"split_type":[0,0,0,0,0,0,0,0,0,0,0,0,0,0,0,0,0,0,0,0,0,0,0,0,0,0,0,0,0,0,0],"sum_hessian":[5.2414374E2,4.2230716E2,1.0183656E2,3.2915204E2,9.315511E1,7.1980286E1,2.9856283E1,2.9894306E1,2.9925775E2,2.1629726E1,7.152538E1,1.32636595E1,5.871662E1,3.7767282E0,2.6079554E1,1.9387606E1,1.05067005E1,2.9736768E2,1.8900722E0,1.8389814E1,3.2399113E0,4.6641514E1,2.488387E1,1.4953694E0,1.176829E1,4.1317913E1,1.739871E1,1.8882909E0,1.8884374E0,4.1819563E0,2.1897598E1],"tree_param":{"num_deleted":"0","num_feature":"4","num_nodes":"31","size_leaf_vector":"1"}},{"base_weights":[-5.8197397E-1,-8.0114996E-1,2.7559137E-1,-9.9703974E-1,-1.6024992E-1,-1.2816724E-1,7.576555E-1,-4.7965062E-1,-1.04928926E-1,7.7173644E-1,-4.5676318E-1,7.299114E-1,-2.7991283E-1,6.04797E-1,1.6385725E0,-9.984523E-2,3.8478147E-2,6.0566653E-2,1.3628785E-1,-8.8625215E-2,3.5118844E-2,-2.5231136E-2,9.292733E-2,-5.7351273E-2,3.0335153E-2,-4.265686E-3,8.5883565E-2,1.87502E-1,3.3592828E-2],"categories":[],"categories_nodes":[],"categories_segments":[],"categories_sizes":[],"default_left":[0,0,0,0,0,0,0,0,0,0,0,0,0,0,0,0,0,0,0,0,0,0,0,0,0,0,0,0,0],"id":10,"left_children":[1,3,5,7,9,11,13,15,-1,17,19,21,23,25,27,-1,-1,-1,-1,-1,-1,-1,-1,-1,-1,-1,-1,-1,-1],"loss_changes":[9.264209E1,4.903894E1,1.9723326E1,7.6053467E0,2.60331E1,7.460828E0,5.2173233E0,1.3548791E1,0E0,1.412981E0,2.4992996E1,1.9286075E0,8.407135E0,6.759345E0,1.2897129E0,0E0,0E0,0E0,0E0,0E0,0E0,0E0,0E0,0E0,0E0,0E0,0E0,0E0,0E0],"parents":[2147483647,0,0,1,1,2,2,3,3,4,4,5,5,6,6,7,7,9,9,10,10,11,11,12,12,13,13,14,14],"right_children":[2,4,6,8,10,12,14,16,-1,18,20,22,24,26,28,-1,-1,-1,-1,-1,-1,-1,-1,-1,-1,-1,-1,-1,-1],"split_conditions":[2.4992378E1,5.009411E0,3.267454E0,3.9559913E-1,4.004348E-1,3.7787643E-1,1.1E1,1.1E1,-1.04928926E-1,1.1E1,1.1E1,2.5784061E1,1E1,5.009411E0,8.4068465E-1,-9.984523E-2,3.8478147E-2,6.0566653E-2,1.3628785E-1,-8.8625215E-2,3.5118844E-2,-2.5231136E-2,9.292733E-2,-5.7351273E-2,3.0335153E-2,-4.265686E-3,8.5883565E-2,1.87502E-1,3.3592828E-2],"split_indices":[0,2,2,3,3,3,1,1,0,1,1,0,1,2,3,0,0,0,0,0,0,0,0,0,0,0,0,0,0],"split_type":[0,0,0,0,0,0,0,0,0,0,0,0,0,0,0,0,0,0,0,0,0,0,0,0,0,0,0,0,0],"sum_hessian":[4.9071335E2,3.9087863E2,9.98347E1,2.989496E2,9.192904E1,5.4729485E1,4.5105213E1,2.835456E1,2.7059503E2,2.1801355E1,7.0127686E1,7.651621E0,4.7077866E1,3.9872932E1,5.232279E0,1.7622887E1,1.0731674E1,1.8600481E1,3.2008739E0,4.5724598E1,2.4403086E1,1.2462013E0,6.4054193E0,3.1325935E1,1.5751929E1,1.1470587E1,2.8402348E1,4.056563E0,1.1757157E0],"tree_param":{"num_deleted":"0","num_feature":"4","num_nodes":"29","size_leaf_vector":"1"}},{"base_weights":[-5.610577E-1,-7.826999E-1,2.549941E-1,-9.874453E-1,-1.4935066E-1,-1.18156806E-1,6.922055E-1,-4.5702627E-1,-1.04363106E-1,7.031108E-1,-4.3284112E-1,6.6631174E-1,-2.6036963E-1,5.5062234E-1,1.4954934E0,-9.885044E-2,3.43468E-2,5.274233E-2,1.20568834E-1,-8.855866E-2,2.8601825E-2,-2.382407E-2,8.512786E-2,-5.4306507E-2,2.7260734E-2,-5.640685E-3,7.7715315E-2,1.7051809E-1,3.172935E-2],"categories":[],"categories_nodes":[],"categories_segments":[],"categories_sizes":[],"default_left":[0,0,0,0,0,0,0,0,0,0,0,0,0,0,0,0,0,0,0,0,0,0,0,0,0,0,0,0,0],"id":11,"left_children":[1,3,5,7,9,11,13,15,-1,17,19,21,23,25,27,-1,-1,-1,-1,-1,-1,-1,-1,-1,-1,-1,-1,-1,-1],"loss_changes":[8.363353E1,4.6925583E1,1.6279129E1,7.6931458E0,2.202041E1,6.244558E0,4.392563E0,1.2267832E1,0E0,1.3778524E0,2.2402039E1,1.6471107E0,7.1973996E0,5.623044E0,1.0127859E0,0E0,0E0,0E0,0E0,0E0,0E0,0E0,0E0,0E0,0E0,0E0,0E0,0E0,0E0],"parents":[2147483647,0,0,1,1,2,2,3,3,4,4,5,5,6,6,7,7,9,9,10,10,11,11,12,12,13,13,14,14],"right_children":[2,4,6,8,10,12,14,16,-1,18,20,22,24,26,28,-1,-1,-1,-1,-1,-1,-1,-1,-1,-1,-1,-1,-1,-1],"split_conditions":[2.4992378E1,5.009411E0,3.267454E0,3.9559913E-1,4.004348E-1,3.7787643E-1,1.1E1,1.1E1,-1.04363106E-1,1E1,1E1,2.5784061E1,1E1,4.961977E0,8.4068465E-1,-9.885044E-2,3.43468E-2,5.274233E-2,1.20568834E-1,-8.855866E-2,2.8601825E-2,-2.382407E-2,8.512786E-2,-5.4306507E-2,2.7260734E-2,-5.640685E-3,7.7715315E-2,1.7051809E-1,3.172935E-2],"split_indices":[0,2,2,3,3,3,1,1,0,1,1,0,1,2,3,0,0,0,0,0,0,0,0,0,0,0,0,0,0],"split_type":[0,0,0,0,0,0,0,0,0,0,0,0,0,0,0,0,0,0,0,0,0,0,0,0,0,0,0,0,0],"sum_hessian":[4.6028845E2,3.6200708E2,9.8281364E1,2.7314673E2,8.886035E1,5.3419056E1,4.4862312E1,2.7037249E1,2.4610948E2,2.180677E1,6.705359E1,7.632371E0,4.5786686E1,3.9572872E1,5.2894387E0,1.6107805E1,1.0929442E1,1.7676855E1,4.1299148E0,4.0999638E1,2.6053947E1,1.2468455E0,6.3855257E0,2.9905586E1,1.58811E1,1.0958537E1,2.8614336E1,4.1105895E0,1.178849E0],"tree_param":{"num_deleted":"0","num_feature":"4","num_nodes":"29","size_leaf_vector":"1"}},{"base_weights":[-5.4028E-1,-7.6404095E-1,2.3611818E-1,-9.78018E-1,-1.3913412E-1,-1.0880732E-1,6.341304E-1,-4.3498597E-1,-1.0384865E-1,6.4198554E-1,-4.0936807E-1,6.09858E-1,-2.4181369E-1,1.3402455E0,4.7494772E-1,-9.787041E-2,3.072624E-2,2.744389E-2,8.319111E-2,-7.637519E-2,4.496281E-2,-2.2499364E-2,7.822528E-2,-5.1315527E-2,2.4525043E-2,1.4681157E-1,4.8286375E-2,-1.15045635E-2,6.958642E-2],"categories":[],"categories_nodes":[],"categories_segments":[],"categories_sizes":[],"default_left":[0,0,0,0,0,0,0,0,0,0,0,0,0,0,0,0,0,0,0,0,0,0,0,0,0,0,0,0,0],"id":12,"left_children":[1,3,5,7,9,11,13,15,-1,17,19,21,23,25,27,-1,-1,-1,-1,-1,-1,-1,-1,-1,-1,-1,-1,-1,-1],"loss_changes":[7.545481E1,4.4871033E1,1.3481953E1,7.7759857E0,1.8631546E1,5.232237E0,4.478468E0,1.1127277E1,0E0,1.3602533E0,2.0210674E1,1.412519E0,6.1528654E0,1.4872742E-1,5.1221075E0,0E0,0E0,0E0,0E0,0E0,0E0,0E0,0E0,0E0,0E0,0E0,0E0,0E0,0E0],"parents":[2147483647,0,0,1,1,2,2,3,3,4,4,5,5,6,6,7,7,9,9,10,10,11,11,12,12,13,13,14,14],"right_children":[2,4,6,8,10,12,14,16,-1,18,20,22,24,26,28,-1,-1,-1,-1,-1,-1,-1,-1,-1,-1,-1,-1,-1,-1],"split_conditions":[2.4992378E1,5.009411E0,3.267454E0,3.9559913E-1,4.004348E-1,3.7787643E-1,4.5016193E-1,1.1E1,-1.0384865E-1,3E0,1.3E1,2.5784061E1,1E1,8E0,5.009411E0,-9.787041E-2,3.072624E-2,2.744389E-2,8.319111E-2,-7.637519E-2,4.496281E-2,-2.2499364E-2,7.822528E-2,-5.1315527E-2,2.4525043E-2,1.4681157E-1,4.8286375E-2,-1.15045635E-2,6.958642E-2],"split_indices":[0,2,2,3,3,3,3,1,0,1,1,0,1,1,2,0,0,0,0,0,0,0,0,0,0,0,0,0,0],"split_type":[0,0,0,0,0,0,0,0,0,0,0,0,0,0,0,0,0,0,0,0,0,0,0,0,0,0,0,0,0],"sum_hessian":[4.3228992E2,3.3558807E2,9.670184E1,2.495675E2,8.602055E1,5.2195114E1,4.4506725E1,2.582671E1,2.237408E2,2.175664E1,6.4263916E1,7.5914607E0,4.4603653E1,6.822665E0,3.7684063E1,1.4723072E1,1.1103638E1,8.245266E0,1.35113735E1,4.5573277E1,1.869064E1,1.2470922E0,6.3443685E0,2.8611002E1,1.5992652E1,5.3173146E0,1.5053502E0,1.0396841E1,2.728722E1],"tree_param":{"num_deleted":"0","num_feature":"4","num_nodes":"29","size_leaf_vector":"1"}},{"base_weights":[-5.196557E-1,-7.45144E-1,2.1883164E-1,-9.6866405E-1,-1.295536E-1,-1.0008142E-1,5.825549E-1,-4.1353786E-1,-1.0337901E-1,5.859674E-1,-3.856645E-1,3.6882794E-1,-2.8131407E-1,4.4496346E-1,1.3648447E0,-9.6897E-2,2.7538164E-2,4.375179E-2,1.17022574E-1,-8.5135244E-2,2.4484709E-2,5.472101E-2,-5.5383604E-2,-5.93581E-2,2.0838352E-2,-5.032845E-3,6.629177E-2,1.5557985E-1,2.8961912E-2],"categories":[],"categories_nodes":[],"categories_segments":[],"categories_sizes":[],"default_left":[0,0,0,0,0,0,0,0,0,0,0,0,0,0,0,0,0,0,0,0,0,0,0,0,0,0,0,0,0],"id":13,"left_children":[1,3,5,7,9,11,13,15,-1,17,19,21,23,25,27,-1,-1,-1,-1,-1,-1,-1,-1,-1,-1,-1,-1,-1,-1],"loss_changes":[6.802246E1,4.2862167E1,1.1205145E1,7.8530884E0,1.5688005E1,4.5275435E0,4.240737E0,1.01070175E1,0E0,1.4514022E0,1.8629715E1,2.7625988E0,5.9516544E0,4.328479E0,8.3332634E-1,0E0,0E0,0E0,0E0,0E0,0E0,0E0,0E0,0E0,0E0,0E0,0E0,0E0,0E0],"parents":[2147483647,0,0,1,1,2,2,3,3,4,4,5,5,6,6,7,7,9,9,10,10,11,11,12,12,13,13,14,14],"right_children":[2,4,6,8,10,12,14,16,-1,18,20,22,24,26,28,-1,-1,-1,-1,-1,-1,-1,-1,-1,-1,-1,-1,-1,-1],"split_conditions":[2.4992378E1,5.009411E0,3.267454E0,3.9559913E-1,4.004348E-1,5.0033355E-1,1.1E1,1.1E1,-1.0337901E-1,1.1E1,1E1,2.491778E0,1E1,5.052265E0,8.4068465E-1,-9.6897E-2,2.7538164E-2,4.375179E-2,1.17022574E-1,-8.5135244E-2,2.4484709E-2,5.472101E-2,-5.5383604E-2,-5.93581E-2,2.0838352E-2,-5.032845E-3,6.629177E-2,1.5557985E-1,2.8961912E-2],"split_indices":[0,2,2,3,3,3,1,1,0,1,1,2,1,2,3,0,0,0,0,0,0,0,0,0,0,0,0,0,0],"split_type":[0,0,0,0,0,0,0,0,0,0,0,0,0,0,0,0,0,0,0,0,0,0,0,0,0,0,0,0,0],"sum_hessian":[4.0651437E2,3.114177E2,9.50967E1,2.280423E2,8.337538E1,5.105577E1,4.4040936E1,2.4716011E1,2.033263E2,2.1637295E1,6.173809E1,1.3943688E1,3.7112083E1,3.8787647E1,5.253288E0,1.3458649E1,1.1257362E1,1.8648014E1,2.989282E0,3.5309025E1,2.6429062E1,1.2025648E1,1.918041E0,2.2531935E1,1.4580146E1,1.2087773E1,2.6699873E1,4.0814886E0,1.1717993E0],"tree_param":{"num_deleted":"0","num_feature":"4","num_nodes":"29","size_leaf_vector":"1"}},{"base_weights":[-4.9909273E-1,-7.258812E-1,2.0194924E-1,-9.592957E-1,-1.2025212E-1,-9.3353085E-2,5.357067E-1,-3.9269847E-1,-1.02948345E-1,5.3754133E-1,-3.635661E-1,4.7052392E-1,-2.2479507E-1,1.2850729E0,3.931823E-1,-9.5922865E-2,2.4719622E-2,1.3818092E-2,7.045482E-2,-8.324782E-2,2.187306E-2,6.0837504E-2,-2.8294338E-2,-4.9592707E-2,1.9711753E-2,1.4325003E-1,4.421319E-2,-1.618774E-2,6.085658E-2],"categories":[],"categories_nodes":[],"categories_segments":[],"categories_sizes":[],"default_left":[0,0,0,0,0,0,0,0,0,0,0,0,0,0,0,0,0,0,0,0,0,0,0,0,0,0,0,0,0],"id":14,"left_children":[1,3,5,7,9,11,13,15,-1,17,19,21,23,25,27,-1,-1,-1,-1,-1,-1,-1,-1,-1,-1,-1,-1,-1,-1],"loss_changes":[6.118966E1,4.0924606E1,9.376686E0,7.923584E0,1.3304665E1,3.8901205E0,4.255047E0,9.190733E0,0E0,1.4046168E0,1.6670576E1,1.2082455E0,4.9118705E0,1.969881E-1,4.7477674E0,0E0,0E0,0E0,0E0,0E0,0E0,0E0,0E0,0E0,0E0,0E0,0E0,0E0,0E0],"parents":[2147483647,0,0,1,1,2,2,3,3,4,4,5,5,6,6,7,7,9,9,10,10,11,11,12,12,13,13,14,14],"right_children":[2,4,6,8,10,12,14,16,-1,18,20,22,24,26,28,-1,-1,-1,-1,-1,-1,-1,-1,-1,-1,-1,-1,-1,-1],"split_conditions":[2.4992378E1,5.009411E0,3.267454E0,3.9559913E-1,4.004348E-1,3.9020497E-1,4.259755E-1,1.1E1,-1.02948345E-1,3.0251294E-1,1E1,2.491778E0,1E1,8E0,5.009411E0,-9.5922865E-2,2.4719622E-2,1.3818092E-2,7.045482E-2,-8.324782E-2,2.187306E-2,6.0837504E-2,-2.8294338E-2,-4.9592707E-2,1.9711753E-2,1.4325003E-1,4.421319E-2,-1.618774E-2,6.085658E-2],"split_indices":[0,2,2,3,3,3,3,1,0,3,1,2,1,1,2,0,0,0,0,0,0,0,0,0,0,0,0,0,0],"split_type":[0,0,0,0,0,0,0,0,0,0,0,0,0,0,0,0,0,0,0,0,0,0,0,0,0,0,0,0,0],"sum_hessian":[3.8294705E2,2.89317E2,9.363005E1,2.0841005E2,8.090694E1,5.0059044E1,4.3571007E1,2.3698288E1,1.8471176E2,2.15197E1,5.9387234E1,8.975418E0,4.1083626E1,5.6816187E0,3.788939E1,1.2305015E1,1.1393274E1,6.884446E0,1.4635253E1,3.2658413E1,2.6728823E1,7.750066E0,1.225352E0,2.4904148E1,1.6179478E1,4.2405524E0,1.441066E0,1.0661727E1,2.7227661E1],"tree_param":{"num_deleted":"0","num_feature":"4","num_nodes":"29","size_leaf_vector":"1"}},{"base_weights":[-4.788711E-1,-7.064065E-1,1.874245E-1,-9.4983083E-1,-1.1227015E-1,-8.620873E-2,4.9456748E-1,-3.724901E-1,-1.0255144E-1,-2.6793632E-1,8.199964E-1,3.1401634E-1,-2.4809378E-1,3.7051433E-1,1.336926E-1,-8.644437E-2,3.2330293E-2,5.009341E-2,-5.4806292E-2,1.1957919E-1,-1.3734624E-2,4.7079764E-2,-5.0097562E-2,-5.4187562E-2,1.6875962E-2,1.0878587E-1,2.0723438E-2],"categories":[],"categories_nodes":[],"categories_segments":[],"categories_sizes":[],"default_left":[0,0,0,0,0,0,0,0,0,0,0,0,0,0,0,0,0,0,0,0,0,0,0,0,0,0,0],"id":15,"left_children":[1,3,5,7,9,11,13,15,-1,17,19,21,23,25,-1,-1,-1,-1,-1,-1,-1,-1,-1,-1,-1,-1,-1],"loss_changes":[5.5037437E1,3.8968033E1,7.8572307E0,7.986435E0,1.1779617E1,3.3190348E0,4.098015E0,8.414819E0,0E0,1.5138519E1,4.353289E0,2.1331022E0,4.5217676E0,4.4242673E0,0E0,0E0,0E0,0E0,0E0,0E0,0E0,0E0,0E0,0E0,0E0,0E0,0E0],"parents":[2147483647,0,0,1,1,2,2,3,3,4,4,5,5,6,6,7,7,9,9,10,10,11,11,12,12,13,13],"right_children":[2,4,6,8,10,12,14,16,-1,18,20,22,24,26,-1,-1,-1,-1,-1,-1,-1,-1,-1,-1,-1,-1,-1],"split_conditions":[2.4992378E1,5.009411E0,3.267454E0,3.9559913E-1,1.6E1,5.0033355E-1,1.2E1,1.2E1,-1.0255144E-1,3.9020497E-1,8.031535E-1,2.491778E0,1E1,4.5016193E-1,1.336926E-1,-8.644437E-2,3.2330293E-2,5.009341E-2,-5.4806292E-2,1.1957919E-1,-1.3734624E-2,4.7079764E-2,-5.0097562E-2,-5.4187562E-2,1.6875962E-2,1.0878587E-1,2.0723438E-2],"split_indices":[0,2,2,3,1,3,1,1,0,3,3,2,1,3,0,0,0,0,0,0,0,0,0,0,0,0,0],"split_type":[0,0,0,0,0,0,0,0,0,0,0,0,0,0,0,0,0,0,0,0,0,0,0,0,0,0,0],"sum_hessian":[3.6115656E2,2.6917496E2,9.19816E1,1.9051863E2,7.865631E1,4.9024796E1,4.29568E1,2.2766851E1,1.6775179E2,6.801246E1,1.0643853E1,1.3848265E1,3.5176533E1,3.869769E1,4.259109E0,1.3195042E1,9.571809E0,1.7951714E1,5.0060745E1,7.4646173E0,3.1792357E0,1.1968244E1,1.8800213E0,2.0458364E1,1.4718167E1,6.125175E0,3.2572514E1],"tree_param":{"num_deleted":"0","num_feature":"4","num_nodes":"27","size_leaf_vector":"1"}},{"base_weights":[-4.572602E-1,-6.85326E-1,1.7273548E-1,-9.399543E-1,-1.0299199E-1,-1.1805578E-2,5.8732647E-1,-3.51654E-1,-1.0218363E-1,-2.4938212E-1,7.33357E-1,5.8878046E-1,-1.7277606E-1,6.864186E-1,1.9279426E-1,-9.403673E-2,2.0968312E-2,4.5560077E-2,-5.1525354E-2,1.061576E-1,-1.2744804E-2,-1.54031385E-2,7.603837E-2,-4.668374E-2,3.4869727E-2,6.0144407E-3,7.823127E-2,5.9125748E-2,-9.948737E-3],"categories":[],"categories_nodes":[],"categories_segments":[],"categories_sizes":[],"default_left":[0,0,0,0,0,0,0,0,0,0,0,0,0,0,0,0,0,0,0,0,0,0,0,0,0,0,0,0,0],"id":16,"left_children":[1,3,5,7,9,11,13,15,-1,17,19,21,23,25,27,-1,-1,-1,-1,-1,-1,-1,-1,-1,-1,-1,-1,-1,-1],"loss_changes":[4.940384E1,3.727691E1,7.043547E0,8.082489E0,9.708699E0,6.3492537E0,9.7593117E-1,7.7767887E0,0E0,1.2785487E1,3.4814892E0,1.8871875E0,8.0963545E0,1.2902021E0,8.835323E-1,0E0,0E0,0E0,0E0,0E0,0E0,0E0,0E0,0E0,0E0,0E0,0E0,0E0,0E0],"parents":[2147483647,0,0,1,1,2,2,3,3,4,4,5,5,6,6,7,7,9,9,10,10,11,11,12,12,13,13,14,14],"right_children":[2,4,6,8,10,12,14,16,-1,18,20,22,24,26,28,-1,-1,-1,-1,-1,-1,-1,-1,-1,-1,-1,-1,-1,-1],"split_conditions":[2.4992378E1,5.009411E0,5.052265E0,3.9559913E-1,1.6E1,4.004348E-1,7.3535323E0,1.1E1,-1.0218363E-1,3.9020497E-1,8.031535E-1,-1.1533952E0,1.1E1,1E0,3.1588758E1,-9.403673E-2,2.0968312E-2,4.5560077E-2,-5.1525354E-2,1.061576E-1,-1.2744804E-2,-1.54031385E-2,7.603837E-2,-4.668374E-2,3.4869727E-2,6.0144407E-3,7.823127E-2,5.9125748E-2,-9.948737E-3],"split_indices":[0,2,2,3,1,3,2,1,0,3,3,2,1,1,0,0,0,0,0,0,0,0,0,0,0,0,0,0,0],"split_type":[0,0,0,0,0,0,0,0,0,0,0,0,0,0,0,0,0,0,0,0,0,0,0,0,0,0,0,0,0],"sum_hessian":[3.4202136E2,2.5105038E2,9.0970985E1,1.7424626E2,7.680413E1,6.362293E1,2.7348057E1,2.1936079E1,1.5231018E2,6.596056E1,1.084357E1,1.2886244E1,5.0736687E1,2.1266785E1,6.081272E0,1.0377376E1,1.1558703E1,1.7868074E1,4.8092487E1,7.68145E0,3.1621196E0,2.4375067E0,1.0448737E1,3.2509304E1,1.8227383E1,3.0400076E0,1.8226778E1,2.140397E0,3.940875E0],"tree_param":{"num_deleted":"0","num_feature":"4","num_nodes":"29","size_leaf_vector":"1"}},{"base_weights":[-4.3710333E-1,-6.6407657E-1,1.6050434E-1,-9.300748E-1,-9.436671E-2,-1.049835E-2,5.4321927E-1,-3.328785E-1,-1.01840675E-1,-3.799827E-1,3.2947516E-1,5.3944016E-1,-1.6003692E-1,5.8276597E-2,6.1829656E-1,-9.302529E-2,1.888036E-2,2.645686E-2,-7.867613E-2,8.538017E-2,-6.6811307E-3,6.744459E-2,-3.5477098E-2,-4.392111E-2,3.1421103E-2,5.3215243E-2,-4.28011E-2,9.306056E-3,7.164967E-2],"categories":[],"categories_nodes":[],"categories_segments":[],"categories_sizes":[],"default_left":[0,0,0,0,0,0,0,0,0,0,0,0,0,0,0,0,0,0,0,0,0,0,0,0,0,0,0,0,0],"id":17,"left_children":[1,3,5,7,9,11,13,15,-1,17,19,21,23,25,27,-1,-1,-1,-1,-1,-1,-1,-1,-1,-1,-1,-1,-1,-1],"loss_changes":[4.4141876E1,3.5597153E1,5.906712E0,8.123123E0,9.333165E0,5.292107E0,9.784794E-1,7.080156E0,0E0,1.2244263E1,6.531077E0,1.9006634E0,6.829415E0,1.3430235E0,1.1725035E0,0E0,0E0,0E0,0E0,0E0,0E0,0E0,0E0,0E0,0E0,0E0,0E0,0E0,0E0],"parents":[2147483647,0,0,1,1,2,2,3,3,4,4,5,5,6,6,7,7,9,9,10,10,11,11,12,12,13,13,14,14],"right_children":[2,4,6,8,10,12,14,16,-1,18,20,22,24,26,28,-1,-1,-1,-1,-1,-1,-1,-1,-1,-1,-1,-1,-1,-1],"split_conditions":[2.4992378E1,5.009411E0,5.052265E0,3.9559913E-1,1E1,4.004348E-1,2.7849306E1,1.1E1,-1.01840675E-1,4.004348E-1,6.8032163E-1,8E0,1.1E1,4E0,1E0,-9.302529E-2,1.888036E-2,2.645686E-2,-7.867613E-2,8.538017E-2,-6.6811307E-3,6.744459E-2,-3.5477098E-2,-4.392111E-2,3.1421103E-2,5.3215243E-2,-4.28011E-2,9.306056E-3,7.164967E-2],"split_indices":[0,2,2,3,1,3,0,1,0,3,3,1,1,1,1,0,0,0,0,0,0,0,0,0,0,0,0,0,0],"split_type":[0,0,0,0,0,0,0,0,0,0,0,0,0,0,0,0,0,0,0,0,0,0,0,0,0,0,0,0,0],"sum_hessian":[3.23646E2,2.3447896E2,8.916705E1,1.5941524E2,7.506371E1,6.2302116E1,2.6864937E1,2.1155476E1,1.3825977E2,4.4906124E1,3.0157589E1,1.2761917E1,4.95402E1,3.8396842E0,2.3025253E1,9.497164E0,1.1658313E1,1.7510258E1,2.7395864E1,1.2484648E1,1.7672941E1,1.130142E1,1.4604965E0,3.1230001E1,1.8310198E1,1.8968917E0,1.9427924E0,3.9335942E0,1.909166E1],"tree_param":{"num_deleted":"0","num_feature":"4","num_nodes":"29","size_leaf_vector":"1"}},{"base_weights":[-4.1798124E-1,-6.435887E-1,1.4856121E-1,-9.1988087E-1,-8.784524E-2,-8.4197834E-2,4.0660593E-1,-3.1480756E-1,-1.0151871E-1,-3.603523E-1,2.976454E-1,1.573257E-1,-3.7336606E-1,2.888977E-1,1.2010922E-1,-9.199109E-2,1.7015776E-2,2.40048E-2,-7.6603904E-2,7.641851E-2,-6.0678166E-3,2.500083E-2,-9.6523084E-2,2.2527214E-2,-6.217256E-2,9.579816E-2,1.3855259E-2],"categories":[],"categories_nodes":[],"categories_segments":[],"categories_sizes":[],"default_left":[0,0,0,0,0,0,0,0,0,0,0,0,0,0,0,0,0,0,0,0,0,0,0,0,0,0,0],"id":18,"left_children":[1,3,5,7,9,11,13,15,-1,17,19,21,23,25,-1,-1,-1,-1,-1,-1,-1,-1,-1,-1,-1,-1,-1],"loss_changes":[3.9402287E1,3.3719307E1,5.343544E0,8.153198E0,7.9022E0,3.3624876E0,3.5894322E0,6.4489975E0,0E0,1.0882763E1,5.2752666E0,2.9962213E0,3.3849387E0,3.6876073E0,0E0,0E0,0E0,0E0,0E0,0E0,0E0,0E0,0E0,0E0,0E0,0E0,0E0],"parents":[2147483647,0,0,1,1,2,2,3,3,4,4,5,5,6,6,7,7,9,9,10,10,11,11,12,12,13,13],"right_children":[2,4,6,8,10,12,14,16,-1,18,20,22,24,26,-1,-1,-1,-1,-1,-1,-1,-1,-1,-1,-1,-1,-1],"split_conditions":[2.4992378E1,5.009411E0,3.267454E0,3.9559913E-1,1E1,1.0972469E0,1.2E1,1.1E1,-1.0151871E-1,4.004348E-1,6.8032163E-1,2E1,4.7848636E-1,4.5016193E-1,1.2010922E-1,-9.199109E-2,1.7015776E-2,2.40048E-2,-7.6603904E-2,7.641851E-2,-6.0678166E-3,2.500083E-2,-9.6523084E-2,2.2527214E-2,-6.217256E-2,9.579816E-2,1.3855259E-2],"split_indices":[0,2,2,3,1,2,1,1,0,3,3,1,3,3,0,0,0,0,0,0,0,0,0,0,0,0,0],"split_type":[0,0,0,0,0,0,0,0,0,0,0,0,0,0,0,0,0,0,0,0,0,0,0,0,0,0,0],"sum_hessian":[3.0652484E2,2.1912805E2,8.7396774E1,1.4592508E2,7.320298E1,4.630389E1,4.1092888E1,2.0442762E1,1.2548231E2,4.292447E1,3.0278513E1,2.5478926E1,2.0824965E1,3.697799E1,4.1148977E0,8.69586E0,1.17469015E1,1.7473166E1,2.5451303E1,1.2661058E1,1.7617455E1,2.425373E1,1.2251948E0,6.1336246E0,1.469134E1,5.7989454E0,3.1179045E1],"tree_param":{"num_deleted":"0","num_feature":"4","num_nodes":"27","size_leaf_vector":"1"}},{"base_weights":[-3.9734203E-1,-6.227235E-1,1.3568108E-1,-9.09307E-1,-8.1707716E-2,-2.2377983E-2,4.7767043E-1,-2.974617E-1,-1.01214185E-1,-3.410996E-1,2.6920342E-1,4.5770133E-1,-1.5512225E-1,3.086249E-2,5.473782E-1,-9.093013E-2,1.5347411E-2,2.1781852E-2,-7.447296E-2,5.6837667E-2,-1.9552467E-2,5.9062716E-2,-3.7897624E-2,-4.289246E-2,2.831462E-2,4.797425E-2,-4.1775335E-2,6.2903754E-2,-1.623073E-3],"categories":[],"categories_nodes":[],"categories_segments":[],"categories_sizes":[],"default_left":[0,0,0,0,0,0,0,0,0,0,0,0,0,0,0,0,0,0,0,0,0,0,0,0,0,0,0,0,0],"id":19,"left_children":[1,3,5,7,9,11,13,15,-1,17,19,21,23,25,27,-1,-1,-1,-1,-1,-1,-1,-1,-1,-1,-1,-1,-1,-1],"loss_changes":[3.5290085E1,3.1887474E1,4.7626414E0,8.1716385E0,6.6894546E0,3.9633806E0,8.499656E-1,5.8762016E0,0E0,9.663671E0,4.472024E0,1.7233975E0,5.952785E0,1.1702163E0,1.1155314E0,0E0,0E0,0E0,0E0,0E0,0E0,0E0,0E0,0E0,0E0,0E0,0E0,0E0,0E0],"parents":[2147483647,0,0,1,1,2,2,3,3,4,4,5,5,6,6,7,7,9,9,10,10,11,11,12,12,13,13,14,14],"right_children":[2,4,6,8,10,12,14,16,-1,18,20,22,24,26,28,-1,-1,-1,-1,-1,-1,-1,-1,-1,-1,-1,-1,-1,-1],"split_conditions":[2.4992378E1,5.009411E0,5.009411E0,3.9559913E-1,1E1,4.004348E-1,2.7849306E1,1.1E1,-1.01214185E-1,4.004348E-1,1.6374828E0,8E0,1.1E1,4E0,7.827673E0,-9.093013E-2,1.5347411E-2,2.1781852E-2,-7.447296E-2,5.6837667E-2,-1.9552467E-2,5.9062716E-2,-3.7897624E-2,-4.289246E-2,2.831462E-2,4.797425E-2,-4.1775335E-2,6.2903754E-2,-1.623073E-3],"split_indices":[0,2,2,3,1,3,0,1,0,3,0,1,1,1,2,0,0,0,0,0,0,0,0,0,0,0,0,0,0],"split_type":[0,0,0,0,0,0,0,0,0,0,0,0,0,0,0,0,0,0,0,0,0,0,0,0,0,0,0,0,0],"sum_hessian":[2.9205386E2,2.051435E2,8.691038E1,1.3366078E2,7.1482704E1,6.007825E1,2.6832125E1,1.9792461E1,1.13868324E2,4.11171E1,3.0365606E1,1.2483342E1,4.759491E1,3.8159103E0,2.3016214E1,7.966654E0,1.1825807E1,1.7434874E1,2.3682224E1,1.833758E1,1.2028027E1,1.1025728E1,1.4576144E0,2.9307045E1,1.8287863E1,1.8727118E0,1.9431984E0,2.0002089E1,3.0141242E0],"tree_param":{"num_deleted":"0","num_feature":"4","num_nodes":"29","size_leaf_vector":"1"}},{"base_weights":[-3.7864327E-1,-6.010867E-1,1.2535009E-1,-8.9829165E-1,-7.619191E-2,1.4285518E-2,5.556363E-1,-2.808576E-1,-1.0092379E-1,-2.0307234E-1,5.574129E-1,3.90855E-1,-1.2140151E-1,6.6527915E-1,-3.8211107E-2,-8.9839004E-2,1.3852106E-2,3.396694E-2,-4.348269E-2,1.3664313E-1,2.2993943E-2,5.56871E-2,-1.4342082E-2,-3.3744007E-2,2.8064763E-2,-9.79827E-3,7.7568516E-2],"categories":[],"categories_nodes":[],"categories_segments":[],"categories_sizes":[],"default_left":[0,0,0,0,0,0,0,0,0,0,0,0,0,0,0,0,0,0,0,0,0,0,0,0,0,0,0],"id":20,"left_children":[1,3,5,7,9,11,13,15,-1,17,19,21,23,25,-1,-1,-1,-1,-1,-1,-1,-1,-1,-1,-1,-1,-1],"loss_changes":[3.13312E1,3.0133125E1,4.111432E0,8.17765E0,5.8276362E0,3.6006348E0,2.0697775E0,5.355694E0,0E0,7.6890974E0,2.8984969E0,1.7346942E0,4.6011734E0,1.4390087E0,0E0,0E0,0E0,0E0,0E0,0E0,0E0,0E0,0E0,0E0,0E0,0E0,0E0],"parents":[2147483647,0,0,1,1,2,2,3,3,4,4,5,5,6,6,7,7,9,9,10,10,11,11,12,12,13,13],"right_children":[2,4,6,8,10,12,14,16,-1,18,20,22,24,26,-1,-1,-1,-1,-1,-1,-1,-1,-1,-1,-1,-1,-1],"split_conditions":[2.4992378E1,5.009411E0,5.956339E0,3.9559913E-1,1.6E1,4.8140743E-1,9.6200824E-1,1.1E1,-1.0092379E-1,3.9020497E-1,4.8701605E-1,3.847027E1,1.1E1,2.7410723E1,-3.8211107E-2,-8.9839004E-2,1.3852106E-2,3.396694E-2,-4.348269E-2,1.3664313E-1,2.2993943E-2,5.56871E-2,-1.4342082E-2,-3.3744007E-2,2.8064763E-2,-9.79827E-3,7.7568516E-2],"split_indices":[0,2,2,3,1,3,3,1,0,3,3,0,1,0,0,0,0,0,0,0,0,0,0,0,0,0,0],"split_type":[0,0,0,0,0,0,0,0,0,0,0,0,0,0,0,0,0,0,0,0,0,0,0,0,0,0,0],"sum_hessian":[2.777963E2,1.9259819E2,8.519812E1,1.22516014E2,7.008217E1,6.853993E1,1.6658184E1,1.9199436E1,1.03316574E2,5.8955692E1,1.1126479E1,1.7656803E1,5.0883133E1,1.5174512E1,1.4836718E0,7.3032517E0,1.1896185E1,1.7502132E1,4.145356E1,2.29185E0,8.834629E0,1.3438695E1,4.218108E0,3.3202618E1,1.7680517E1,1.9318324E0,1.324268E1],"tree_param":{"num_deleted":"0","num_feature":"4","num_nodes":"27","size_leaf_vector":"1"}},{"base_weights":[-3.5874242E-1,-5.7819223E-1,1.1510239E-1,-8.867773E-1,-6.80866E-2,-8.677894E-2,3.4003484E-1,-2.650074E-1,-1.0064446E-1,-3.180181E-1,2.5019962E-1,1.3893583E-1,-3.6512762E-1,2.2879148E-1,1.0947579E-1,-8.871499E-2,1.2509937E-2,1.7342774E-2,-7.0949435E-2,6.569815E-2,-6.2462324E-3,7.029633E-5,9.7865015E-2,8.1059426E-2,-4.740022E-2,9.218746E-2,1.0289884E-2],"categories":[],"categories_nodes":[],"categories_segments":[],"categories_sizes":[],"default_left":[0,0,0,0,0,0,0,0,0,0,0,0,0,0,0,0,0,0,0,0,0,0,0,0,0,0,0],"id":21,"left_children":[1,3,5,7,9,11,13,15,-1,17,19,21,23,25,-1,-1,-1,-1,-1,-1,-1,-1,-1,-1,-1,-1,-1],"loss_changes":[2.7749985E1,2.8607658E1,3.8939886E0,8.170311E0,5.62654E0,2.9185545E0,3.1461763E0,4.882233E0,0E0,7.7222795E0,4.0130754E0,3.0092325E0,3.0359383E0,3.0919752E0,0E0,0E0,0E0,0E0,0E0,0E0,0E0,0E0,0E0,0E0,0E0,0E0,0E0],"parents":[2147483647,0,0,1,1,2,2,3,3,4,4,5,5,6,6,7,7,9,9,10,10,11,11,12,12,13,13],"right_children":[2,4,6,8,10,12,14,16,-1,18,20,22,24,26,-1,-1,-1,-1,-1,-1,-1,-1,-1,-1,-1,-1,-1],"split_conditions":[2.4992378E1,5.009411E0,3.267454E0,3.9559913E-1,1E1,1.0972469E0,1.2E1,1.1E1,-1.0064446E-1,4.004348E-1,6.8032163E-1,8.6479247E-1,2.581842E-1,4.259755E-1,1.0947579E-1,-8.871499E-2,1.2509937E-2,1.7342774E-2,-7.0949435E-2,6.569815E-2,-6.2462324E-3,7.029633E-5,9.7865015E-2,8.1059426E-2,-4.740022E-2,9.218746E-2,1.0289884E-2],"split_indices":[0,2,2,3,1,2,1,1,0,3,3,2,3,3,0,0,0,0,0,0,0,0,0,0,0,0,0],"split_type":[0,0,0,0,0,0,0,0,0,0,0,0,0,0,0,0,0,0,0,0,0,0,0,0,0,0,0],"sum_hessian":[2.6522485E2,1.8112222E2,8.410262E1,1.12392624E2,6.87296E1,4.464608E1,3.945654E1,1.8658888E1,9.373374E1,3.849924E1,3.0230354E1,2.4930573E1,1.9715508E1,3.5523636E1,3.9329054E0,6.699847E0,1.195904E1,1.731703E1,2.1182213E1,1.265917E1,1.7571184E1,2.2266005E1,2.6645687E0,1.1247097E0,1.8590797E1,4.4887557E0,3.1034878E1],"tree_param":{"num_deleted":"0","num_feature":"4","num_nodes":"27","size_leaf_vector":"1"}},{"base_weights":[-3.3834788E-1,-5.5647373E-1,1.083618E-1,-8.7471074E-1,-6.319497E-2,-2.869045E-2,4.0504166E-1,-2.4991769E-1,-1.0037328E-1,-2.9957455E-1,2.2668056E-1,6.857256E-2,-5.180517E-1,4.9852952E-1,5.4670863E-2,-7.60354E-2,1.9275246E-2,1.573631E-2,-6.867463E-2,5.0012715E-2,-2.0440597E-2,-1.018276E-2,4.0949505E-2,2.9250849E-2,-8.813654E-2,2.1055456E-2,7.246556E-2,4.9769104E-2,-2.4162758E-2],"categories":[],"categories_nodes":[],"categories_segments":[],"categories_sizes":[],"default_left":[0,0,0,0,0,0,0,0,0,0,0,0,0,0,0,0,0,0,0,0,0,0,0,0,0,0,0,0,0],"id":22,"left_children":[1,3,5,7,9,11,13,15,-1,17,19,21,23,25,27,-1,-1,-1,-1,-1,-1,-1,-1,-1,-1,-1,-1,-1,-1],"loss_changes":[2.4914886E1,2.6875015E1,3.4484918E0,8.148956E0,4.7514696E0,2.831873E0,8.497677E-1,4.4772897E0,0E0,6.845137E0,3.7884724E0,2.9401436E0,3.1608222E0,1.2157102E0,1.0079622E0,0E0,0E0,0E0,0E0,0E0,0E0,0E0,0E0,0E0,0E0,0E0,0E0,0E0,0E0],"parents":[2147483647,0,0,1,1,2,2,3,3,4,4,5,5,6,6,7,7,9,9,10,10,11,11,12,12,13,13,14,14],"right_children":[2,4,6,8,10,12,14,16,-1,18,20,22,24,26,28,-1,-1,-1,-1,-1,-1,-1,-1,-1,-1,-1,-1,-1,-1],"split_conditions":[2.4992378E1,5.009411E0,5.009411E0,3.9559913E-1,1E1,8.8429457E-1,7.3535323E0,1.2E1,-1.0037328E-1,4.004348E-1,1.6374828E0,1E1,3.8868076E-1,5.956339E0,3.1588758E1,-7.60354E-2,1.9275246E-2,1.573631E-2,-6.867463E-2,5.0012715E-2,-2.0440597E-2,-1.018276E-2,4.0949505E-2,2.9250849E-2,-8.813654E-2,2.1055456E-2,7.246556E-2,4.9769104E-2,-2.4162758E-2],"split_indices":[0,2,2,3,1,3,2,1,0,3,0,1,2,2,0,0,0,0,0,0,0,0,0,0,0,0,0,0,0],"split_type":[0,0,0,0,0,0,0,0,0,0,0,0,0,0,0,0,0,0,0,0,0,0,0,0,0,0,0,0,0],"sum_hessian":[2.540786E2,1.7055287E2,8.3525734E1,1.0320031E2,6.7352554E1,5.775084E1,2.5774899E1,1.8166344E1,8.5033966E1,3.7081177E1,3.027138E1,4.8892986E1,8.857853E0,2.0012255E1,5.762643E0,8.104041E0,1.0062302E1,1.7280453E1,1.9800724E1,1.8424318E1,1.1847059E1,3.306682E1,1.5826166E1,2.8018208E0,6.0560327E0,9.651748E0,1.0360508E1,2.0371048E0,3.7255383E0],"tree_param":{"num_deleted":"0","num_feature":"4","num_nodes":"29","size_leaf_vector":"1"}},{"base_weights":[-3.1948116E-1,-5.281553E-1,1.11310825E-1,-8.595162E-1,-4.4807464E-2,2.4897104E-2,4.5696536E-1,-2.2195041E-1,-1.0043404E-1,-2.6288328E-1,2.1473621E-1,4.3694293E-1,-7.585246E-2,6.2573665E-1,-2.9816777E-1,-7.746234E-2,1.0930917E-2,1.0046696E-2,-6.972623E-2,9.4253294E-2,5.194299E-3,-2.7109524E-2,6.1998118E-2,-2.479791E-2,2.4140185E-2,8.516226E-2,-1.9547587E-2,1.158235E-2,-5.4801982E-2],"categories":[],"categories_nodes":[],"categories_segments":[],"categories_sizes":[],"default_left":[0,0,0,0,0,0,0,0,0,0,0,0,0,0,0,0,0,0,0,0,0,0,0,0,0,0,0,0,0],"id":23,"left_children":[1,3,5,7,9,11,13,15,-1,17,19,21,23,25,27,-1,-1,-1,-1,-1,-1,-1,-1,-1,-1,-1,-1,-1,-1],"loss_changes":[2.2074287E1,2.6413658E1,2.4003806E0,8.819412E0,3.9182057E0,2.7586071E0,2.237305E0,3.6383915E0,0E0,5.9928136E0,3.7072084E0,1.8589089E0,2.9871643E0,2.665989E0,4.3756956E-1,0E0,0E0,0E0,0E0,0E0,0E0,0E0,0E0,0E0,0E0,0E0,0E0,0E0,0E0],"parents":[2147483647,0,0,1,1,2,2,3,3,4,4,5,5,6,6,7,7,9,9,10,10,11,11,12,12,13,13,14,14],"right_children":[2,4,6,8,10,12,14,16,-1,18,20,22,24,26,28,-1,-1,-1,-1,-1,-1,-1,-1,-1,-1,-1,-1,-1,-1],"split_conditions":[2.5392265E1,5.009411E0,5.956339E0,3.9559913E-1,1E1,4.004348E-1,8.8706064E-1,1.1E1,-1.0043404E-1,5.342286E-1,4.7848636E-1,-1.1533952E0,1.1E1,7.827673E0,1E0,-7.746234E-2,1.0930917E-2,1.0046696E-2,-6.972623E-2,9.4253294E-2,5.194299E-3,-2.7109524E-2,6.1998118E-2,-2.479791E-2,2.4140185E-2,8.516226E-2,-1.9547587E-2,1.158235E-2,-5.4801982E-2],"split_indices":[0,2,2,3,1,3,3,1,0,3,3,2,1,2,1,0,0,0,0,0,0,0,0,0,0,0,0,0,0],"split_type":[0,0,0,0,0,0,0,0,0,0,0,0,0,0,0,0,0,0,0,0,0,0,0,0,0,0,0,0,0],"sum_hessian":[2.4390192E2,1.6415822E2,7.9743706E1,9.692956E1,6.722866E1,6.465257E1,1.509113E1,1.8410927E1,7.851863E1,3.6525803E1,3.0702862E1,1.2046764E1,5.260581E1,1.2474461E1,2.61667E0,6.398036E0,1.2012891E1,2.0307585E1,1.6218218E1,4.7367234E0,2.5966139E1,2.3757348E0,9.67103E0,3.4244682E1,1.8361128E1,9.754357E0,2.7201028E0,1.1867394E0,1.4299306E0],"tree_param":{"num_deleted":"0","num_feature":"4","num_nodes":"29","size_leaf_vector":"1"}},{"base_weights":[-3.0145037E-1,-5.121492E-1,9.342059E-2,-8.4848243E-1,-5.5569094E-2,-7.995762E-2,2.8911883E-1,-2.2288221E-1,-9.984373E-2,-1.6543402E-1,4.464347E-1,1.2628423E-1,-3.4184512E-1,1.8429461E-1,1.01142846E-1,-8.542469E-2,9.883171E-3,2.5937065E-2,-3.6456037E-2,1.216858E-1,1.5861409E-2,2.2142023E-2,-9.7545035E-2,7.594086E-2,-4.4495195E-2,7.786827E-2,5.5218535E-3],"categories":[],"categories_nodes":[],"categories_segments":[],"categories_sizes":[],"default_left":[0,0,0,0,0,0,0,0,0,0,0,0,0,0,0,0,0,0,0,0,0,0,0,0,0,0,0],"id":24,"left_children":[1,3,5,7,9,11,13,15,-1,17,19,21,23,25,-1,-1,-1,-1,-1,-1,-1,-1,-1,-1,-1,-1,-1],"loss_changes":[1.9612965E1,2.3523937E1,2.827973E0,8.06255E0,3.7237709E0,2.4529872E0,2.7703073E0,3.814387E0,0E0,4.749138E0,2.5018718E0,2.9086783E0,2.6004498E0,2.667113E0,0E0,0E0,0E0,0E0,0E0,0E0,0E0,0E0,0E0,0E0,0E0,0E0,0E0],"parents":[2147483647,0,0,1,1,2,2,3,3,4,4,5,5,6,6,7,7,9,9,10,10,11,11,12,12,13,13],"right_children":[2,4,6,8,10,12,14,16,-1,18,20,22,24,26,-1,-1,-1,-1,-1,-1,-1,-1,-1,-1,-1,-1,-1],"split_conditions":[2.4992378E1,5.009411E0,3.267454E0,3.9559913E-1,1.6E1,1.0972469E0,1.2E1,1.1E1,-9.984373E-2,3.9020497E-1,4.8701605E-1,2E1,2.581842E-1,4.5016193E-1,1.01142846E-1,-8.542469E-2,9.883171E-3,2.5937065E-2,-3.6456037E-2,1.216858E-1,1.5861409E-2,2.2142023E-2,-9.7545035E-2,7.594086E-2,-4.4495195E-2,7.786827E-2,5.5218535E-3],"split_indices":[0,2,2,3,1,2,1,1,0,3,3,1,3,3,0,0,0,0,0,0,0,0,0,0,0,0,0],"split_type":[0,0,0,0,0,0,0,0,0,0,0,0,0,0,0,0,0,0,0,0,0,0,0,0,0,0,0],"sum_hessian":[2.3416093E2,1.5249452E2,8.1666405E1,8.7316055E1,6.517847E1,4.3616203E1,3.8050205E1,1.7363441E1,6.9952614E1,5.402533E1,1.115314E1,2.4690062E1,1.8926144E1,3.432411E1,3.7260947E0,5.30232E0,1.2061121E1,1.714552E1,3.6879807E1,2.1555202E0,8.997621E0,2.3463028E1,1.2270325E0,1.0753533E0,1.785079E1,5.2259884E0,2.9098122E1],"tree_param":{"num_deleted":"0","num_feature":"4","num_nodes":"27","size_leaf_vector":"1"}},{"base_weights":[-2.824148E-1,-5.0734E-1,6.496547E-2,-8.3096176E-1,-1.0991238E-2,-4.820389E-2,4.1377622E-1,-1.9483507E-1,-9.990796E-2,8.109469E-2,-4.786665E-1,-2.4107605E-1,2.2063012E-1,2.1949814E-1,7.2628045E-1,-6.330365E-2,1.5408114E-2,-2.5447716E-3,6.647431E-2,2.5370438E-2,-8.435158E-2,1.8562589E-2,-5.3268056E-2,4.5478072E-2,-2.2377696E-2,4.245484E-2,-4.6305854E-2,1.0076326E-1,-9.426138E-3],"categories":[],"categories_nodes":[],"categories_segments":[],"categories_sizes":[],"default_left":[0,0,0,0,0,0,0,0,0,0,0,0,0,0,0,0,0,0,0,0,0,0,0,0,0,0,0,0,0],"id":25,"left_children":[1,3,5,7,9,11,13,15,-1,17,19,21,23,25,27,-1,-1,-1,-1,-1,-1,-1,-1,-1,-1,-1,-1,-1,-1],"loss_changes":[1.7758226E1,2.212738E1,3.574419E0,8.725258E0,2.4248645E0,3.624773E0,1.1861064E0,2.9532528E0,0E0,2.948528E0,2.6881483E0,5.1488447E0,3.1503472E0,2.3098607E0,1.9563837E0,0E0,0E0,0E0,0E0,0E0,0E0,0E0,0E0,0E0,0E0,0E0,0E0,0E0,0E0],"parents":[2147483647,0,0,1,1,2,2,3,3,4,4,5,5,6,6,7,7,9,9,10,10,11,11,12,12,13,13,14,14],"right_children":[2,4,6,8,10,12,14,16,-1,18,20,22,24,26,28,-1,-1,-1,-1,-1,-1,-1,-1,-1,-1,-1,-1,-1,-1],"split_conditions":[5.009411E0,2.5392265E1,2.7849306E1,3.9559913E-1,8.8429457E-1,1.1E1,8.302015E-1,1.2E1,-9.990796E-2,7.9315734E-1,3.8868076E-1,3.9020497E-1,7.850618E-1,7.673035E-1,9.6200824E-1,-6.330365E-2,1.5408114E-2,-2.5447716E-3,6.647431E-2,2.5370438E-2,-8.435158E-2,1.8562589E-2,-5.3268056E-2,4.5478072E-2,-2.2377696E-2,4.245484E-2,-4.6305854E-2,1.0076326E-1,-9.426138E-3],"split_indices":[2,0,0,3,3,1,3,1,0,3,2,3,3,3,3,0,0,0,0,0,0,0,0,0,0,0,0,0,0],"split_type":[0,0,0,0,0,0,0,0,0,0,0,0,0,0,0,0,0,0,0,0,0,0,0,0,0,0,0,0,0],"sum_hessian":[2.2585559E2,1.3681122E2,8.9044365E1,8.2407196E1,5.440403E1,6.7882225E1,2.1162138E1,1.7677544E1,6.472965E1,4.6144676E1,8.259352E0,3.958537E1,2.8296858E1,1.409927E1,7.0628686E0,7.4751987E0,1.0202344E1,3.9830242E1,6.3144336E0,2.8477087E0,5.4116435E0,1.621766E1,2.3367706E1,1.8517143E1,9.779715E0,1.113281E1,2.9664602E0,5.089681E0,1.9731877E0],"tree_param":{"num_deleted":"0","num_feature":"4","num_nodes":"29","size_leaf_vector":"1"}},{"base_weights":[-2.6490715E-1,-4.823261E-1,6.0043637E-2,-8.149036E-1,-1.0128991E-2,-4.4536304E-2,3.8399908E-1,-1.8132617E-1,-9.963258E-2,7.39819E-2,-4.4887897E-1,6.7564684E-1,-1.1011543E-1,1.9993176E-1,6.8574286E-1,-7.0999466E-2,8.6457115E-3,-5.628207E-3,4.6707366E-2,2.3244252E-2,-8.061102E-2,-6.5156403E-3,1.5810929E-1,2.7909419E-2,-2.084723E-2,3.933574E-2,-4.2181533E-2,9.61397E-2,-8.7966565E-3],"categories":[],"categories_nodes":[],"categories_segments":[],"categories_sizes":[],"default_left":[0,0,0,0,0,0,0,0,0,0,0,0,0,0,0,0,0,0,0,0,0,0,0,0,0,0,0,0,0],"id":26,"left_children":[1,3,5,7,9,11,13,15,-1,17,19,21,23,25,27,-1,-1,-1,-1,-1,-1,-1,-1,-1,-1,-1,-1,-1,-1],"loss_changes":[1.5516642E1,2.0634882E1,3.0244238E0,8.6833E0,2.075268E0,3.2859473E0,1.0718293E0,2.6646245E0,0E0,2.4478998E0,2.388352E0,4.0036917E0,2.4769645E0,1.9615462E0,1.7556863E0,0E0,0E0,0E0,0E0,0E0,0E0,0E0,0E0,0E0,0E0,0E0,0E0,0E0,0E0],"parents":[2147483647,0,0,1,1,2,2,3,3,4,4,5,5,6,6,7,7,9,9,10,10,11,11,12,12,13,13,14,14],"right_children":[2,4,6,8,10,12,14,16,-1,18,20,22,24,26,28,-1,-1,-1,-1,-1,-1,-1,-1,-1,-1,-1,-1,-1,-1],"split_conditions":[5.009411E0,2.5392265E1,2.7849306E1,3.9559913E-1,8.8429457E-1,-3.1987896E1,8.302015E-1,1.1E1,-9.963258E-2,7.4695945E-1,3.8868076E-1,1.4E1,3.6350623E-1,7.673035E-1,9.6200824E-1,-7.0999466E-2,8.6457115E-3,-5.628207E-3,4.6707366E-2,2.3244252E-2,-8.061102E-2,-6.5156403E-3,1.5810929E-1,2.7909419E-2,-2.084723E-2,3.933574E-2,-4.2181533E-2,9.61397E-2,-8.7966565E-3],"split_indices":[2,0,0,3,3,0,3,1,0,3,2,1,3,3,3,0,0,0,0,0,0,0,0,0,0,0,0,0,0],"split_type":[0,0,0,0,0,0,0,0,0,0,0,0,0,0,0,0,0,0,0,0,0,0,0,0,0,0,0,0,0],"sum_hessian":[2.1821558E2,1.3044966E2,8.7765915E1,7.6114784E1,5.433488E1,6.699952E1,2.0766394E1,1.7388544E1,5.872624E1,4.6291847E1,8.043034E0,4.815327E0,6.2184193E1,1.3930941E1,6.8354535E0,5.2911553E0,1.2097389E1,3.54133E1,1.0878549E1,2.8867204E0,5.156313E0,3.1588829E0,1.6564443E0,1.2173733E1,5.001046E1,1.0905556E1,3.0253854E0,4.8610106E0,1.9744428E0],"tree_param":{"num_deleted":"0","num_feature":"4","num_nodes":"29","size_leaf_vector":"1"}},{"base_weights":[-2.4695182E-1,-4.5777264E-1,5.745901E-2,-7.982728E-1,-9.694884E-3,-3.814984E-2,3.5650563E-1,-1.695746E-1,-9.935268E-2,3.864251E-1,-1.0026605E-1,-2.3202597E-1,1.9573747E-1,1.8205538E-1,6.481911E-1,-6.8434514E-2,7.823698E-3,5.7550397E-2,-4.7972787E-2,-3.0788196E-2,1.8610565E-2,4.0238923E-3,-6.1269213E-2,4.2857576E-2,-1.7292839E-2,3.641804E-2,-3.8482506E-2,9.1872536E-2,-8.2095405E-3],"categories":[],"categories_nodes":[],"categories_segments":[],"categories_sizes":[],"default_left":[0,0,0,0,0,0,0,0,0,0,0,0,0,0,0,0,0,0,0,0,0,0,0,0,0,0,0,0,0],"id":27,"left_children":[1,3,5,7,9,11,13,15,-1,17,19,21,23,25,27,-1,-1,-1,-1,-1,-1,-1,-1,-1,-1,-1,-1,-1,-1],"loss_changes":[1.3667748E1,1.9170143E1,2.525769E0,8.59761E0,2.0223026E0,3.1053803E0,9.7003603E-1,2.366085E0,0E0,1.9948329E0,2.7799263E0,3.8961356E0,2.746061E0,1.6651229E0,1.5792687E0,0E0,0E0,0E0,0E0,0E0,0E0,0E0,0E0,0E0,0E0,0E0,0E0,0E0,0E0],"parents":[2147483647,0,0,1,1,2,2,3,3,4,4,5,5,6,6,7,7,9,9,10,10,11,11,12,12,13,13,14,14],"right_children":[2,4,6,8,10,12,14,16,-1,18,20,22,24,26,28,-1,-1,-1,-1,-1,-1,-1,-1,-1,-1,-1,-1,-1,-1],"split_conditions":[5.009411E0,2.5392265E1,2.7849306E1,3.9559913E-1,3.844227E-1,1E1,8.302015E-1,1.1E1,-9.935268E-2,8E0,1E1,5.7123023E-1,1.6374828E0,7.673035E-1,9.6200824E-1,-6.8434514E-2,7.823698E-3,5.7550397E-2,-4.7972787E-2,-3.0788196E-2,1.8610565E-2,4.0238923E-3,-6.1269213E-2,4.2857576E-2,-1.7292839E-2,3.641804E-2,-3.8482506E-2,9.1872536E-2,-8.2095405E-3],"split_indices":[2,0,0,3,3,1,3,1,0,1,1,3,0,3,3,0,0,0,0,0,0,0,0,0,0,0,0,0,0],"split_type":[0,0,0,0,0,0,0,0,0,0,0,0,0,0,0,0,0,0,0,0,0,0,0,0,0,0,0,0,0],"sum_hessian":[2.1156259E2,1.2469845E2,8.686415E1,7.0410805E1,5.4287643E1,6.64816E1,2.038255E1,1.7128199E1,5.3282604E1,9.494812E0,4.479283E1,3.6354355E1,3.0127247E1,1.3770741E1,6.6118083E0,4.993603E0,1.2134596E1,8.068946E0,1.4258654E0,2.5923502E1,1.886933E1,2.1716381E1,1.4637973E1,1.8365587E1,1.176166E1,1.0692932E1,3.07781E0,4.6362705E0,1.9755381E0],"tree_param":{"num_deleted":"0","num_feature":"4","num_nodes":"29","size_leaf_vector":"1"}},{"base_weights":[-2.315808E-1,-4.222062E-1,7.32872E-2,-7.8840506E-1,-4.1654114E-2,-7.460864E-2,2.3951817E-1,-1.8160102E-1,-9.876675E-2,9.472864E-2,-3.6745346E-1,-1.2874225E-3,-1.00500956E-1,1.2299321E-1,1.0253807E0,5.64553E-3,-8.542037E-2,-1.068683E-2,4.57314E-2,-9.354692E-2,-4.8395055E-3,2.473387E-2,-1.4153105E-2,7.967704E-2,6.302646E-4,3.1049622E-2,1.1378991E-1],"categories":[],"categories_nodes":[],"categories_segments":[],"categories_sizes":[],"default_left":[0,0,0,0,0,0,0,0,0,0,0,0,0,0,0,0,0,0,0,0,0,0,0,0,0,0,0],"id":28,"left_children":[1,3,5,7,9,11,13,15,-1,17,19,21,-1,23,25,-1,-1,-1,-1,-1,-1,-1,-1,-1,-1,-1,-1],"loss_changes":[1.1984451E1,1.762409E1,1.9842398E0,7.621113E0,2.8425198E0,2.9381022E0,3.344004E0,2.797939E0,0E0,3.3629098E0,3.371119E0,1.4625782E0,0E0,2.6790009E0,2.9331207E-2,0E0,0E0,0E0,0E0,0E0,0E0,0E0,0E0,0E0,0E0,0E0,0E0],"parents":[2147483647,0,0,1,1,2,2,3,3,4,4,5,5,6,6,7,7,9,9,10,10,11,11,13,13,14,14],"right_children":[2,4,6,8,10,12,14,16,-1,18,20,22,-1,24,26,-1,-1,-1,-1,-1,-1,-1,-1,-1,-1,-1,-1],"split_conditions":[2.4992378E1,5.009411E0,3.1229272E0,3.9559913E-1,6.5564237E0,2.7558908E0,1.2E1,8.939634E0,-9.876675E-2,1.3E1,1.1418914E1,5.365593E-1,-1.00500956E-1,4.259755E-1,2.8939558E1,5.64553E-3,-8.542037E-2,-1.068683E-2,4.57314E-2,-9.354692E-2,-4.8395055E-3,2.473387E-2,-1.4153105E-2,7.967704E-2,6.302646E-4,3.1049622E-2,1.1378991E-1],"split_indices":[0,2,2,3,0,2,1,0,0,1,0,3,0,3,0,0,0,0,0,0,0,0,0,0,0,0,0],"split_type":[0,0,0,0,0,0,0,0,0,0,0,0,0,0,0,0,0,0,0,0,0,0,0,0,0,0,0],"sum_hessian":[2.0468509E2,1.2570217E2,7.8982925E1,6.351297E1,6.21892E1,4.2088196E1,3.6894726E1,1.6173124E1,4.7339844E1,4.433809E1,1.785111E1,3.9941914E1,2.1462808E0,3.313769E1,3.7570343E0,1.2621886E1,3.5512385E0,2.8948195E1,1.5389895E1,5.725717E0,1.2125394E1,1.412942E1,2.5812494E1,4.031507E0,2.9106186E1,1.022174E0,2.7348602E0],"tree_param":{"num_deleted":"0","num_feature":"4","num_nodes":"27","size_leaf_vector":"1"}},{"base_weights":[-2.1553169E-1,-4.1644052E-1,5.3207528E-2,-7.6242334E-1,-1.4079948E-2,-3.3138983E-2,3.2602924E-1,-1.4860576E-1,-9.880989E-2,-7.774108E-2,4.839349E-1,6.1234224E-1,-9.3351595E-2,4.3682948E-1,-7.996221E-2,-5.5914164E-2,1.388399E-2,2.7728518E-2,-1.8440446E-2,9.901366E-2,-2.4680397E-2,-5.24906E-3,1.3938151E-1,-7.143942E-2,-3.2200117E-3,-2.190085E-2,5.5449016E-2,3.360745E-2,-3.99975E-2],"categories":[],"categories_nodes":[],"categories_segments":[],"categories_sizes":[],"default_left":[0,0,0,0,0,0,0,0,0,0,0,0,0,0,0,0,0,0,0,0,0,0,0,0,0,0,0,0,0],"id":29,"left_children":[1,3,5,7,9,11,13,15,-1,17,19,21,23,25,27,-1,-1,-1,-1,-1,-1,-1,-1,-1,-1,-1,-1,-1,-1],"loss_changes":[1.0847324E1,1.5976061E1,2.052173E0,8.403782E0,1.7532235E0,2.6507335E0,9.7621584E-1,2.1746862E0,0E0,1.9006641E0,2.5642524E0,3.1000688E0,2.3279996E0,1.4018848E0,8.4425217E-1,0E0,0E0,0E0,0E0,0E0,0E0,0E0,0E0,0E0,0E0,0E0,0E0,0E0,0E0],"parents":[2147483647,0,0,1,1,2,2,3,3,4,4,5,5,6,6,7,7,9,9,10,10,11,11,12,12,13,13,14,14],"right_children":[2,4,6,8,10,12,14,16,-1,18,20,22,24,26,28,-1,-1,-1,-1,-1,-1,-1,-1,-1,-1,-1,-1,-1,-1],"split_conditions":[5.009411E0,2.5392265E1,2.7849306E1,3.9559913E-1,1.8E1,-3.1987896E1,7.3535323E0,1.2E1,-9.880989E-2,4.004348E-1,2.2E1,1.4E1,-2.2482437E1,1E0,3.6143932E1,-5.5914164E-2,1.388399E-2,2.7728518E-2,-1.8440446E-2,9.901366E-2,-2.4680397E-2,-5.24906E-3,1.3938151E-1,-7.143942E-2,-3.2200117E-3,-2.190085E-2,5.5449016E-2,3.360745E-2,-3.99975E-2],"split_indices":[2,0,0,3,1,0,2,1,0,3,1,1,0,1,0,0,0,0,0,0,0,0,0,0,0,0,0,0,0],"split_type":[0,0,0,0,0,0,0,0,0,0,0,0,0,0,0,0,0,0,0,0,0,0,0,0,0,0,0,0,0],"sum_hessian":[1.9949539E2,1.1383958E2,8.5655815E1,6.0726795E1,5.311278E1,6.5730896E1,1.9924921E1,1.6770636E1,4.395616E1,4.7841156E1,5.271627E0,4.8260293E0,6.0904865E1,1.5593341E1,4.3315797E0,6.5172935E0,1.0253343E1,1.0683101E1,3.7158054E1,2.9045737E0,2.3670533E0,3.1116474E0,1.7143822E0,4.501915E0,5.640295E1,2.240954E0,1.3352386E1,1.8614225E0,2.4701571E0],"tree_param":{"num_deleted":"0","num_feature":"4","num_nodes":"29","size_leaf_vector":"1"}},{"base_weights":[-2.001428E-1,-3.9356002E-1,4.9248092E-2,-7.433421E-1,-1.1276588E-2,5.734171E-1,1.1055429E-2,-1.3817747E-1,-9.850146E-2,6.2429927E-2,-4.0346003E-1,-4.859247E-2,1.2999257E-1,-4.0324616E-1,9.8469846E-2,-6.390389E-2,8.101714E-3,-7.963869E-3,4.0854193E-2,2.4878234E-2,-7.659004E-2,6.913364E-2,-7.184505E-2,3.0883167E-2,-8.431493E-2,5.597731E-2,1.5739286E-3],"categories":[],"categories_nodes":[],"categories_segments":[],"categories_sizes":[],"default_left":[0,0,0,0,0,0,0,0,0,0,0,0,0,0,0,0,0,0,0,0,0,0,0,0,0,0,0],"id":30,"left_children":[1,3,5,7,9,11,13,15,-1,17,19,21,-1,23,25,-1,-1,-1,-1,-1,-1,-1,-1,-1,-1,-1,-1],"loss_changes":[9.435528E0,1.4707441E1,1.7184331E0,8.266642E0,1.5745423E0,2.6984115E0,2.9849129E0,1.979568E0,0E0,2.2937045E0,2.2268019E0,2.5316615E0,0E0,4.7602615E0,2.5847354E0,0E0,0E0,0E0,0E0,0E0,0E0,0E0,0E0,0E0,0E0,0E0,0E0],"parents":[2147483647,0,0,1,1,2,2,3,3,4,4,5,5,6,6,7,7,9,9,10,10,11,11,13,13,14,14],"right_children":[2,4,6,8,10,12,14,16,-1,18,20,22,-1,24,26,-1,-1,-1,-1,-1,-1,-1,-1,-1,-1,-1,-1],"split_conditions":[5.009411E0,2.5392265E1,-3.1987896E1,3.9559913E-1,8.8429457E-1,1.4E1,-1.2171795E1,1.1E1,-9.850146E-2,7.243558E-1,3.8868076E-1,4.004348E-1,1.2999257E-1,5.80986E0,3.6350623E-1,-6.390389E-2,8.101714E-3,-7.963869E-3,4.0854193E-2,2.4878234E-2,-7.659004E-2,6.913364E-2,-7.184505E-2,3.0883167E-2,-8.431493E-2,5.597731E-2,1.5739286E-3],"split_indices":[2,0,0,3,3,1,0,1,0,3,2,3,0,2,3,0,0,0,0,0,0,0,0,0,0,0,0],"split_type":[0,0,0,0,0,0,0,0,0,0,0,0,0,0,0,0,0,0,0,0,0,0,0,0,0,0,0],"sum_hessian":[1.9420793E2,1.09052925E2,8.515501E1,5.6454056E1,5.2598866E1,4.831538E0,8.032347E1,1.655955E1,3.989451E1,4.498521E1,7.6136556E0,3.1056833E0,1.7258551E0,1.3365325E1,6.6958145E1,4.457875E0,1.2101675E1,3.243962E1,1.25455885E1,2.831579E0,4.782077E0,1.4604251E0,1.6452582E0,5.2175508E0,8.147774E0,9.305382E0,5.765276E1],"tree_param":{"num_deleted":"0","num_feature":"4","num_nodes":"27","size_leaf_vector":"1"}},{"base_weights":[-1.8557371E-1,-3.5798532E-1,6.6131525E-2,-7.339054E-1,-3.903032E-2,-5.7642544E-3,3.6129972E-1,-1.5527143E-1,-9.786684E-2,9.091428E-2,-3.509264E-1,2.7455357E-1,-1.09108165E-1,4.627416E-1,-3.5437897E-2,7.177599E-3,-8.193176E-2,-1.2310221E-2,3.65315E-2,3.82287E-2,-5.573764E-2,4.0912844E-2,-3.0170893E-2,-2.8150504E-2,1.8305937E-2,7.685571E-2,2.1027198E-2],"categories":[],"categories_nodes":[],"categories_segments":[],"categories_sizes":[],"default_left":[0,0,0,0,0,0,0,0,0,0,0,0,0,0,0,0,0,0,0,0,0,0,0,0,0,0,0],"id":31,"left_children":[1,3,5,7,9,11,13,15,-1,17,19,21,23,25,-1,-1,-1,-1,-1,-1,-1,-1,-1,-1,-1,-1,-1],"loss_changes":[8.306725E0,1.3572038E1,1.6665852E0,7.2141685E0,2.5618067E0,1.8856232E0,1.2804692E0,2.5690017E0,0E0,2.6793041E0,3.0231273E0,1.4835813E0,2.4449482E0,9.1184044E-1,0E0,0E0,0E0,0E0,0E0,0E0,0E0,0E0,0E0,0E0,0E0,0E0,0E0],"parents":[2147483647,0,0,1,1,2,2,3,3,4,4,5,5,6,6,7,7,9,9,10,10,11,11,12,12,13,13],"right_children":[2,4,6,8,10,12,14,16,-1,18,20,22,24,26,-1,-1,-1,-1,-1,-1,-1,-1,-1,-1,-1,-1,-1],"split_conditions":[2.4992378E1,5.009411E0,5.956339E0,3.9559913E-1,6.5564237E0,4.8140743E-1,9.6200824E-1,8.939634E0,-9.786684E-2,1.2E1,3.6350623E-1,8E0,1.1E1,6.7452626E0,-3.5437897E-2,7.177599E-3,-8.193176E-2,-1.2310221E-2,3.65315E-2,3.82287E-2,-5.573764E-2,4.0912844E-2,-3.0170893E-2,-2.8150504E-2,1.8305937E-2,7.685571E-2,2.1027198E-2],"split_indices":[0,2,2,3,0,3,3,0,0,1,3,1,1,2,0,0,0,0,0,0,0,0,0,0,0,0,0],"split_type":[0,0,0,0,0,0,0,0,0,0,0,0,0,0,0,0,0,0,0,0,0,0,0,0,0,0,0],"sum_hessian":[1.8986732E2,1.1243204E2,7.743529E1,5.101033E1,6.1421703E1,6.3056686E1,1.43786E1,1.5649164E1,3.5361164E1,4.3857822E1,1.756388E1,1.6538826E1,4.651786E1,1.2903108E1,1.4754926E0,1.2326469E1,3.322695E0,2.4949812E1,1.8908012E1,3.671768E0,1.3892114E1,1.36428385E1,2.8959868E0,2.927833E1,1.7239529E1,4.910673E0,7.9924345E0],"tree_param":{"num_deleted":"0","num_feature":"4","num_nodes":"27","size_leaf_vector":"1"}},{"base_weights":[-1.7259693E-1,-3.1571636E-1,1.04935616E-1,-5.8868474E-1,-4.5056478E-4,1.4136237E-1,-8.962647E-2,-9.756594E-2,-1.9748881E-1,-9.8022655E-2,2.999609E-1,2.762243E-1,-1.7230062E-1,1.3914771E-2,-5.005432E-2,2.1427408E-2,-2.5987992E-2,5.071069E-2,-4.8668655E-3,1.6310072E-2,1.09998085E-1,-3.78738E-2,5.0776917E-2],"categories":[],"categories_nodes":[],"categories_segments":[],"categories_sizes":[],"default_left":[0,0,0,0,0,0,0,0,0,0,0,0,0,0,0,0,0,0,0,0,0,0,0],"id":32,"left_children":[1,3,5,7,9,11,-1,-1,13,15,17,19,21,-1,-1,-1,-1,-1,-1,-1,-1,-1,-1],"loss_changes":[7.4341054E0,1.0600497E1,2.4661016E0,9.801481E0,1.734267E0,2.70229E0,0E0,0E0,3.546898E0,2.3129942E0,1.0722576E0,3.9460864E0,2.9279237E0,0E0,0E0,0E0,0E0,0E0,0E0,0E0,0E0,0E0,0E0],"parents":[2147483647,0,0,1,1,2,2,3,3,4,4,5,5,8,8,9,9,10,10,11,11,12,12],"right_children":[2,4,6,8,10,12,-1,-1,14,16,18,20,22,-1,-1,-1,-1,-1,-1,-1,-1,-1,-1],"split_conditions":[1.1E1,2.4992378E1,3.2E1,5.009411E0,5.956339E0,7.850618E-1,-8.962647E-2,-9.756594E-2,3.9020497E-1,4.7848636E-1,7.3535323E0,7.484328E-1,1.9E1,1.3914771E-2,-5.005432E-2,2.1427408E-2,-2.5987992E-2,5.071069E-2,-4.8668655E-3,1.6310072E-2,1.09998085E-1,-3.78738E-2,5.0776917E-2],"split_indices":[1,0,1,2,2,3,0,0,3,3,2,3,1,0,0,0,0,0,0,0,0,0,0],"split_type":[0,0,0,0,0,0,0,0,0,0,0,0,0,0,0,0,0,0,0,0,0,0,0],"sum_hessian":[1.8532732E2,1.2218219E2,6.3145126E1,6.501908E1,5.7163105E1,6.175702E1,1.3881041E0,3.1934814E1,3.3084267E1,4.3657185E1,1.3505922E1,4.327147E1,1.8485554E1,1.5929941E1,1.7154325E1,1.47922735E1,2.8864912E1,8.1869135E0,5.3190093E0,3.91E1,4.1714673E0,1.4520805E1,3.964748E0],"tree_param":{"num_deleted":"0","num_feature":"4","num_nodes":"23","size_leaf_vector":"1"}},{"base_weights":[-1.6022158E-1,-3.3511254E-1,4.6997897E-2,-6.8681955E-1,-1.1457571E-2,5.419105E-1,1.1154265E-2,-1.1282476E-1,-9.7625464E-2,-7.45563E-2,3.5413763E-1,-3.2130666E-2,1.1778201E-1,-3.812789E-1,9.356036E-2,-2.8444817E-2,4.5385268E-2,-4.6097787E-4,-5.632166E-2,7.3486544E-2,-1.8464142E-2,6.59125E-2,-6.95933E-2,2.909582E-2,-8.091122E-2,9.52745E-2,5.582999E-3],"categories":[],"categories_nodes":[],"categories_segments":[],"categories_sizes":[],"default_left":[0,0,0,0,0,0,0,0,0,0,0,0,0,0,0,0,0,0,0,0,0,0,0,0,0,0,0],"id":33,"left_children":[1,3,5,7,9,11,13,15,-1,17,19,21,-1,23,25,-1,-1,-1,-1,-1,-1,-1,-1,-1,-1,-1,-1],"loss_changes":[6.6122355E0,1.1242333E1,1.4873743E0,7.755718E0,1.237169E0,2.1055467E0,2.6073217E0,1.7826216E0,0E0,1.5555474E0,1.7560267E0,2.2713919E0,0E0,4.2612267E0,2.1033468E0,0E0,0E0,0E0,0E0,0E0,0E0,0E0,0E0,0E0,0E0,0E0,0E0],"parents":[2147483647,0,0,1,1,2,2,3,3,4,4,5,5,6,6,7,7,9,9,10,10,11,11,13,13,14,14],"right_children":[2,4,6,8,10,12,14,16,-1,18,20,22,-1,24,26,-1,-1,-1,-1,-1,-1,-1,-1,-1,-1,-1,-1],"split_conditions":[5.009411E0,2.5392265E1,-3.1987896E1,3.9559913E-1,1.7E1,1.4E1,-1.2171795E1,1.6E1,-9.7625464E-2,4.1565905E0,3.0782846E1,4.004348E-1,1.1778201E-1,5.80986E0,-1.0933601E1,-2.8444817E-2,4.5385268E-2,-4.6097787E-4,-5.632166E-2,7.3486544E-2,-1.8464142E-2,6.59125E-2,-6.95933E-2,2.909582E-2,-8.091122E-2,9.52745E-2,5.582999E-3],"split_indices":[2,0,0,3,1,1,0,1,0,2,0,3,0,2,0,0,0,0,0,0,0,0,0,0,0,0,0],"split_type":[0,0,0,0,0,0,0,0,0,0,0,0,0,0,0,0,0,0,0,0,0,0,0,0,0,0,0],"sum_hessian":[1.8101813E2,9.783189E1,8.318623E1,4.6346424E1,5.1485466E1,4.664345E0,7.852189E1,1.6001925E1,3.0344498E1,4.4586304E1,6.899161E0,2.9504344E0,1.7139102E0,1.2997682E1,6.552421E1,1.2664429E1,3.337495E0,3.988642E1,4.6998835E0,3.8292668E0,3.0698938E0,1.4487813E0,1.5016533E0,5.1794105E0,7.818271E0,1.7362156E0,6.3787994E1],"tree_param":{"num_deleted":"0","num_feature":"4","num_nodes":"27","size_leaf_vector":"1"}},{"base_weights":[-1.4729063E-1,-2.8105977E-1,9.873102E-2,-5.495766E-1,3.7233713E-3,1.3389851E-1,-8.725154E-2,-9.686913E-2,-1.8543684E-1,7.701467E-2,-2.8519323E-2,2.5662366E-1,-1.55794E-1,1.208927E-2,-4.7224056E-2,-1.781217E-2,1.9188913E-2,1.5299134E-2,9.9732734E-2,-7.961072E-2,6.3485326E-3],"categories":[],"categories_nodes":[],"categories_segments":[],"categories_sizes":[],"default_left":[0,0,0,0,0,0,0,0,0,0,0,0,0,0,0,0,0,0,0,0,0],"id":34,"left_children":[1,3,5,7,9,11,-1,-1,13,-1,15,17,19,-1,-1,-1,-1,-1,-1,-1,-1],"loss_changes":[5.909524E0,8.874991E0,2.292219E0,8.935976E0,1.4380403E0,2.2559965E0,0E0,0E0,2.9736905E0,0E0,1.8792224E0,3.2372086E0,2.7421937E0,0E0,0E0,0E0,0E0,0E0,0E0,0E0,0E0],"parents":[2147483647,0,0,1,1,2,2,3,3,4,4,5,5,8,8,10,10,11,11,12,12],"right_children":[2,4,6,8,10,12,-1,-1,14,-1,16,18,20,-1,-1,-1,-1,-1,-1,-1,-1],"split_conditions":[1.1E1,2.4992378E1,3.2E1,5.009411E0,-3.5094664E0,7.850618E-1,-8.725154E-2,-9.686913E-2,3.9020497E-1,7.701467E-2,4.961977E0,7.484328E-1,8.2046473E-1,1.208927E-2,-4.7224056E-2,-1.781217E-2,1.9188913E-2,1.5299134E-2,9.9732734E-2,-7.961072E-2,6.3485326E-3],"split_indices":[1,0,1,2,2,3,0,0,3,0,2,3,3,0,0,0,0,0,0,0,0],"split_type":[0,0,0,0,0,0,0,0,0,0,0,0,0,0,0,0,0,0,0,0,0],"sum_hessian":[1.7772241E2,1.15033134E2,6.2689285E1,5.8728912E1,5.6304222E1,6.133072E1,1.3585637E0,2.653158E1,3.2197334E1,1.3491195E0,5.49551E1,4.316042E1,1.81703E1,1.5848421E1,1.6348911E1,3.285E1,2.2105103E1,3.8921444E1,4.238975E0,3.964138E0,1.42061615E1],"tree_param":{"num_deleted":"0","num_feature":"4","num_nodes":"21","size_leaf_vector":"1"}},{"base_weights":[-1.365756E-1,-2.847682E-1,5.9528966E-2,-6.566406E-1,-3.0001175E-2,-6.846702E-2,2.0540525E-1,-1.16995156E-1,-9.653532E-2,8.7863825E-2,-3.1970152E-1,2.5556406E-3,-9.9181846E-2,8.209801E-2,9.1007286E-1,1.0150977E-2,-7.797069E-2,-8.454645E-3,2.9591251E-2,-8.862346E-2,-9.7557914E-4,-3.8807865E-2,6.8166503E-3,6.4195335E-2,-3.4719147E-3,1.5524945E-2,1.10516205E-1],"categories":[],"categories_nodes":[],"categories_segments":[],"categories_sizes":[],"default_left":[0,0,0,0,0,0,0,0,0,0,0,0,0,0,0,0,0,0,0,0,0,0,0,0,0,0,0],"id":35,"left_children":[1,3,5,7,9,11,13,15,-1,17,19,21,-1,23,25,-1,-1,-1,-1,-1,-1,-1,-1,-1,-1,-1,-1],"loss_changes":[5.110732E0,9.455075E0,1.4381471E0,6.652691E0,2.0903482E0,2.7158468E0,3.0442526E0,2.3838882E0,0E0,1.5930429E0,3.0961661E0,1.0367069E0,0E0,2.092137E0,6.010275E-1,0E0,0E0,0E0,0E0,0E0,0E0,0E0,0E0,0E0,0E0,0E0,0E0],"parents":[2147483647,0,0,1,1,2,2,3,3,4,4,5,5,6,6,7,7,9,9,10,10,11,11,13,13,14,14],"right_children":[2,4,6,8,10,12,14,16,-1,18,20,22,-1,24,26,-1,-1,-1,-1,-1,-1,-1,-1,-1,-1,-1,-1],"split_conditions":[2.4992378E1,5.009411E0,3.1229272E0,3.9559913E-1,6.5564237E0,2.7558908E0,1.1E1,8.939634E0,-9.653532E-2,1.2E1,1.1418914E1,-2.0092072E0,-9.9181846E-2,4.5016193E-1,2.8410086E1,1.0150977E-2,-7.797069E-2,-8.454645E-3,2.9591251E-2,-8.862346E-2,-9.7557914E-4,-3.8807865E-2,6.8166503E-3,6.4195335E-2,-3.4719147E-3,1.5524945E-2,1.10516205E-1],"split_indices":[0,2,2,3,0,2,1,0,0,1,0,2,0,3,0,0,0,0,0,0,0,0,0,0,0,0,0],"split_type":[0,0,0,0,0,0,0,0,0,0,0,0,0,0,0,0,0,0,0,0,0,0,0,0,0,0,0],"sum_hessian":[1.7427744E2,9.900731E1,7.527012E1,3.9611176E1,5.9396137E1,4.0374786E1,3.489533E1,1.491608E1,2.4695095E1,4.271442E1,1.6681715E1,3.841704E1,1.9577432E0,3.0648726E1,4.246604E0,1.1854364E1,3.061716E0,2.36824E1,1.9032022E1,5.241585E0,1.144013E1,4.817821E0,3.3599224E1,4.5149765E0,2.6133749E1,1.2409617E0,3.0056424E0],"tree_param":{"num_deleted":"0","num_feature":"4","num_nodes":"27","size_leaf_vector":"1"}},{"base_weights":[-1.2662302E-1,-2.7928305E-1,4.184818E-2,-6.239908E-1,-9.629157E-3,5.1690245E-1,7.993347E-3,-8.687474E-2,-9.66023E-2,5.3066295E-2,-3.518507E-1,-2.139742E-2,1.09137036E-1,-6.503782E-1,5.392612E-2,7.346165E-2,-1.8777125E-2,-4.1217986E-3,5.451727E-2,-5.903707E-2,5.8487035E-2,6.2781855E-2,-6.7541465E-2,5.2556705E-2,-1.0575183E-1,3.500376E-2,-2.3423856E-4],"categories":[],"categories_nodes":[],"categories_segments":[],"categories_sizes":[],"default_left":[0,0,0,0,0,0,0,0,0,0,0,0,0,0,0,0,0,0,0,0,0,0,0,0,0,0,0],"id":36,"left_children":[1,3,5,7,9,11,13,15,-1,17,19,21,-1,23,25,-1,-1,-1,-1,-1,-1,-1,-1,-1,-1,-1,-1],"loss_changes":[4.4484053E0,8.4183445E0,1.3287725E0,7.221163E0,1.1315249E0,1.7234215E0,2.4053352E0,1.5112705E0,0E0,2.0967097E0,2.1688905E0,2.045552E0,0E0,3.039804E0,1.2369766E0,0E0,0E0,0E0,0E0,0E0,0E0,0E0,0E0,0E0,0E0,0E0,0E0],"parents":[2147483647,0,0,1,1,2,2,3,3,4,4,5,5,6,6,7,7,9,9,10,10,11,11,13,13,14,14],"right_children":[2,4,6,8,10,12,14,16,-1,18,20,22,-1,24,26,-1,-1,-1,-1,-1,-1,-1,-1,-1,-1,-1,-1],"split_conditions":[5.009411E0,2.5392265E1,-3.1987896E1,3.9559913E-1,8.8429457E-1,1.4E1,-2.2482437E1,-3.224475E0,-9.66023E-2,7.9315734E-1,4.5428993E1,4.004348E-1,1.09137036E-1,5.4310155E0,3.6350623E-1,7.346165E-2,-1.8777125E-2,-4.1217986E-3,5.451727E-2,-5.903707E-2,5.8487035E-2,6.2781855E-2,-6.7541465E-2,5.2556705E-2,-1.0575183E-1,3.500376E-2,-2.3423856E-4],"split_indices":[2,0,0,3,3,1,0,2,0,3,0,3,0,2,3,0,0,0,0,0,0,0,0,0,0,0,0],"split_type":[0,0,0,0,0,0,0,0,0,0,0,0,0,0,0,0,0,0,0,0,0,0,0,0,0,0,0],"sum_hessian":[1.7150864E2,8.963143E1,8.18772E1,3.8764023E1,5.0867413E1,4.497642E0,7.7379555E1,1.5568993E1,2.319503E1,4.370545E1,7.161962E0,2.8189363E0,1.6787058E0,4.1882634E0,7.319129E1,1.0159903E0,1.4553002E1,3.7447083E1,6.2583675E0,6.003118E0,1.1588439E0,1.4347636E0,1.3841727E0,1.0023354E0,3.1859279E0,1.0853612E1,6.233768E1],"tree_param":{"num_deleted":"0","num_feature":"4","num_nodes":"27","size_leaf_vector":"1"}},{"base_weights":[-1.15877435E-1,-2.4070765E-1,8.326952E-2,-5.063333E-1,3.2921513E-3,1.9606926E-1,-1.9211863E-1,-8.702349E-1,-1.05543554E-1,7.4344955E-2,-2.9168794E-2,8.904747E-2,9.47065E-1,-7.7159E-1,1.6395823E-3,-9.556409E-2,-4.5946363E-2,1.766864E-2,-5.893994E-2,-4.0423628E-2,5.3304844E-3,1.564246E-2,-8.424708E-2,1.2250054E-1,5.2718878E-2,-9.384655E-2,-7.5660804E-3,-2.591616E-2,3.4975827E-2],"categories":[],"categories_nodes":[],"categories_segments":[],"categories_sizes":[],"default_left":[0,0,0,0,0,0,0,0,0,0,0,0,0,0,0,0,0,0,0,0,0,0,0,0,0,0,0,0,0],"id":37,"left_children":[1,3,5,7,9,11,13,15,17,-1,19,21,23,25,27,-1,-1,-1,-1,-1,-1,-1,-1,-1,-1,-1,-1,-1,-1],"loss_changes":[4.2434587E0,6.786773E0,2.0941772E0,7.219408E0,1.3565525E0,3.7302098E0,2.217884E0,4.7781944E-1,3.5172253E0,0E0,1.6977168E0,2.8082826E0,3.292656E-2,5.037651E-1,1.5244987E0,0E0,0E0,0E0,0E0,0E0,0E0,0E0,0E0,0E0,0E0,0E0,0E0,0E0,0E0],"parents":[2147483647,0,0,1,1,2,2,3,3,4,4,5,5,6,6,7,7,8,8,10,10,11,11,12,12,13,13,14,14],"right_children":[2,4,6,8,10,12,14,16,18,-1,20,22,24,26,28,-1,-1,-1,-1,-1,-1,-1,-1,-1,-1,-1,-1,-1,-1],"split_conditions":[1E1,2.4992378E1,7.850618E-1,5.3725305E0,-3.5094664E0,7.4695945E-1,8.2046473E-1,5.009411E0,5.342286E-1,7.4344955E-2,2.4951921E-1,2.9E1,7.6561433E-1,1.8E1,2.3251472E1,-9.556409E-2,-4.5946363E-2,1.766864E-2,-5.893994E-2,-4.0423628E-2,5.3304844E-3,1.564246E-2,-8.424708E-2,1.2250054E-1,5.2718878E-2,-9.384655E-2,-7.5660804E-3,-2.591616E-2,3.4975827E-2],"split_indices":[1,0,3,2,2,3,3,2,3,0,2,1,3,1,0,0,0,0,0,0,0,0,0,0,0,0,0,0,0],"split_type":[0,0,0,0,0,0,0,0,0,0,0,0,0,0,0,0,0,0,0,0,0,0,0,0,0,0,0,0,0],"sum_hessian":[1.6889099E2,1.03688065E2,6.520293E1,4.9129284E1,5.455878E1,4.6460575E1,1.8742353E1,2.5135721E1,2.3993563E1,1.3720112E0,5.318677E1,4.164453E1,4.8160443E0,3.949219E0,1.4793134E1,1.971103E1,5.4246926E0,1.5555171E1,8.438393E0,8.883887E0,4.4302883E1,3.9611492E1,2.0330408E0,1.7440305E0,3.0720136E0,2.9042964E0,1.0449225E0,8.603306E0,6.189829E0],"tree_param":{"num_deleted":"0","num_feature":"4","num_nodes":"29","size_leaf_vector":"1"}},{"base_weights":[-1.0736955E-1,-2.1954252E-1,8.3418876E-2,-4.6996728E-1,6.465925E-3,1.14343636E-1,-7.939219E-2,-9.524139E-2,-1.5650842E-1,2.796742E-1,-7.141563E-2,-5.358334E-1,1.6111386E-1,4.469389E-3,-5.023522E-2,4.5033768E-2,-7.905946E-2,-2.196141E-2,2.0200916E-2,2.5085483E-2,-1.0595261E-1,4.0062643E-3,4.0217068E-2],"categories":[],"categories_nodes":[],"categories_segments":[],"categories_sizes":[],"default_left":[0,0,0,0,0,0,0,0,0,0,0,0,0,0,0,0,0,0,0,0,0,0,0],"id":38,"left_children":[1,3,5,7,9,11,-1,-1,13,15,17,19,21,-1,-1,-1,-1,-1,-1,-1,-1,-1,-1],"loss_changes":[3.5996928E0,5.983159E0,1.7915101E0,7.4328375E0,1.2226741E0,1.9541805E0,0E0,0E0,2.22042E0,2.683419E0,1.8589658E0,2.059229E0,1.6784182E0,0E0,0E0,0E0,0E0,0E0,0E0,0E0,0E0,0E0,0E0],"parents":[2147483647,0,0,1,1,2,2,3,3,4,4,5,5,8,8,9,9,10,10,11,11,12,12],"right_children":[2,4,6,8,10,12,-1,-1,14,16,18,20,22,-1,-1,-1,-1,-1,-1,-1,-1,-1,-1],"split_conditions":[1.1E1,2.4992378E1,3.2E1,5.009411E0,4.0576732E-1,-1.7819324E0,-7.939219E-2,-9.524139E-2,5.342286E-1,8E0,7.9156053E-1,3.4898207E-1,1.7E1,4.469389E-3,-5.023522E-2,4.5033768E-2,-7.905946E-2,-2.196141E-2,2.0200916E-2,2.5085483E-2,-1.0595261E-1,4.0062643E-3,4.0217068E-2],"split_indices":[1,0,1,2,3,2,0,0,3,1,3,3,1,0,0,0,0,0,0,0,0,0,0],"split_type":[0,0,0,0,0,0,0,0,0,0,0,0,0,0,0,0,0,0,0,0,0,0,0],"sum_hessian":[1.6634393E2,1.0465935E2,6.168458E1,4.9135822E1,5.5523525E1,6.0424397E1,1.2601868E0,1.8548817E1,3.0587008E1,1.1741913E1,4.3781616E1,3.3531938E0,5.70712E1,1.9887678E1,1.069933E1,1.0626635E1,1.1152782E0,2.8520224E1,1.5261391E1,1.5483139E0,1.8048799E0,3.8768875E1,1.8302328E1],"tree_param":{"num_deleted":"0","num_feature":"4","num_nodes":"23","size_leaf_vector":"1"}},{"base_weights":[-1.0046586E-1,-2.3800685E-1,4.356259E-2,-5.632656E-1,-1.6760249E-2,4.340679E-1,2.9301825E-3,-6.2404945E-2,-9.5476225E-2,1.677392E-1,-1.2021217E-1,1.062984E0,-9.863815E-2,2.2534001E-1,-9.3444146E-2,1.2371196E-2,-5.591106E-2,3.5934888E-2,-3.0127276E-2,-4.0582217E-2,8.259738E-3,2.759335E-2,1.3804847E-1,-7.983095E-2,4.5950398E-2,5.811149E-3,9.790821E-2,-2.200597E-2,2.0015579E-2],"categories":[],"categories_nodes":[],"categories_segments":[],"categories_sizes":[],"default_left":[0,0,0,0,0,0,0,0,0,0,0,0,0,0,0,0,0,0,0,0,0,0,0,0,0,0,0,0,0],"id":39,"left_children":[1,3,5,7,9,11,13,15,-1,17,19,21,23,25,27,-1,-1,-1,-1,-1,-1,-1,-1,-1,-1,-1,-1,-1,-1],"loss_changes":[3.276163E0,6.0701303E0,1.2899162E0,6.6408787E0,9.995365E-1,2.6719449E0,1.6224884E0,1.5539858E0,0E0,1.8024447E0,1.9716345E0,5.183716E-1,2.3442311E0,2.827074E0,2.0080538E0,0E0,0E0,0E0,0E0,0E0,0E0,0E0,0E0,0E0,0E0,0E0,0E0,0E0,0E0],"parents":[2147483647,0,0,1,1,2,2,3,3,4,4,5,5,6,6,7,7,9,9,10,10,11,11,12,12,13,13,14,14],"right_children":[2,4,6,8,10,12,14,16,-1,18,20,22,24,26,28,-1,-1,-1,-1,-1,-1,-1,-1,-1,-1,-1,-1,-1,-1],"split_conditions":[5.009411E0,2.5392265E1,5.168074E0,3.9559913E-1,5.365593E-1,1.6374828E0,4.7848636E-1,8.939634E0,-9.5476225E-2,3.847027E1,7.243558E-1,5.600034E-1,2.4992378E1,1.1E1,2.7849306E1,1.2371196E-2,-5.591106E-2,3.5934888E-2,-3.0127276E-2,-4.0582217E-2,8.259738E-3,2.759335E-2,1.3804847E-1,-7.983095E-2,4.5950398E-2,5.811149E-3,9.790821E-2,-2.200597E-2,2.0015579E-2],"split_indices":[2,0,2,3,3,0,3,0,0,0,3,3,0,1,0,0,0,0,0,0,0,0,0,0,0,0,0,0,0],"split_type":[0,0,0,0,0,0,0,0,0,0,0,0,0,0,0,0,0,0,0,0,0,0,0,0,0,0,0,0,0],"sum_hessian":[1.638574E2,8.3482605E1,8.037481E1,3.3171173E1,5.031143E1,6.662341E0,7.371246E1,1.5061572E1,1.8109602E1,1.7852066E1,3.2459366E1,2.5987723E0,4.0635686E0,2.1880083E1,5.1832382E1,1.1502493E1,3.5590792E0,1.2840173E1,5.011894E0,1.3062657E1,1.939671E1,1.284274E0,1.3144984E0,1.6122274E0,2.4513412E0,1.8788649E1,3.0914345E0,3.638972E1,1.544266E1],"tree_param":{"num_deleted":"0","num_feature":"4","num_nodes":"29","size_leaf_vector":"1"}},{"base_weights":[-9.197282E-2,-2.0274012E-1,7.536035E-2,-4.4541675E-1,-2.789947E-3,1.7852022E-1,-1.7939138E-1,-9.406538E-2,-1.5834923E-1,6.8240345E-2,-3.3739693E-2,7.697127E-2,8.838292E-1,-8.611895E-1,-2.362668E-2,3.787369E-3,-5.2463025E-2,-3.8845923E-2,4.285516E-3,1.3820951E-2,-7.893842E-2,1.1494972E-1,4.8766494E-2,-2.7182618E-2,-1.00577E-1,-2.846028E-2,3.06839E-2],"categories":[],"categories_nodes":[],"categories_segments":[],"categories_sizes":[],"default_left":[0,0,0,0,0,0,0,0,0,0,0,0,0,0,0,0,0,0,0,0,0,0,0,0,0,0,0],"id":40,"left_children":[1,3,5,7,9,11,13,-1,15,-1,17,19,21,23,25,-1,-1,-1,-1,-1,-1,-1,-1,-1,-1,-1,-1],"loss_changes":[3.0243845E0,4.7518587E0,1.750529E0,6.140992E0,1.1832701E0,3.3015108E0,2.0342476E0,0E0,2.1193235E0,0E0,1.4647933E0,2.349026E0,5.2562714E-2,3.0783176E-2,1.5342133E0,0E0,0E0,0E0,0E0,0E0,0E0,0E0,0E0,0E0,0E0,0E0,0E0],"parents":[2147483647,0,0,1,1,2,2,3,3,4,4,5,5,6,6,8,8,10,10,11,11,12,12,13,13,14,14],"right_children":[2,4,6,8,10,12,14,-1,16,-1,18,20,22,24,26,-1,-1,-1,-1,-1,-1,-1,-1,-1,-1,-1,-1],"split_conditions":[1E1,2.4992378E1,7.850618E-1,5.009411E0,-3.5094664E0,7.4695945E-1,8.102284E-1,-9.406538E-2,5.342286E-1,6.8240345E-2,2.4951921E-1,2.9E1,7.6561433E-1,3.0470974E0,2.3251472E1,3.787369E-3,-5.2463025E-2,-3.8845923E-2,4.285516E-3,1.3820951E-2,-7.893842E-2,1.1494972E-1,4.8766494E-2,-2.7182618E-2,-1.00577E-1,-2.846028E-2,3.06839E-2],"split_indices":[1,0,3,2,2,3,3,0,3,0,2,1,3,0,0,0,0,0,0,0,0,0,0,0,0,0,0],"split_type":[0,0,0,0,0,0,0,0,0,0,0,0,0,0,0,0,0,0,0,0,0,0,0,0,0,0,0],"sum_hessian":[1.6134685E2,9.6955154E1,6.43917E1,4.32435E1,5.371165E1,4.6045254E1,1.834645E1,1.5032788E1,2.8210712E1,1.4116008E0,5.230005E1,4.121966E1,4.825591E0,2.5697236E0,1.5776727E1,1.8953568E1,9.257146E0,8.564635E0,4.3735416E1,3.928339E1,1.9362718E0,1.7502834E0,3.0753078E0,1.0735682E0,1.4961554E0,8.892726E0,6.8840013E0],"tree_param":{"num_deleted":"0","num_feature":"4","num_nodes":"27","size_leaf_vector":"1"}},{"base_weights":[-8.521639E-2,-2.1278802E-1,4.5122944E-2,-5.227752E-1,-1.8671015E-2,5.057797E-1,1.2643126E-2,-5.4682076E-2,-9.455837E-2,4.426525E-2,-3.5723075E-1,-2.7268673E-3,1.0165471E-1,-6.057504E-1,5.4843348E-2,-2.1964518E-2,4.3767076E-2,-3.9067874E-3,4.6220798E-2,2.8508488E-2,-7.2915845E-2,5.8428854E-2,-6.405076E-2,1.7263709E-2,-1.0556393E-1,6.1938852E-2,2.8926625E-3],"categories":[],"categories_nodes":[],"categories_segments":[],"categories_sizes":[],"default_left":[0,0,0,0,0,0,0,0,0,0,0,0,0,0,0,0,0,0,0,0,0,0,0,0,0,0,0],"id":41,"left_children":[1,3,5,7,9,11,13,15,-1,17,19,21,-1,23,25,-1,-1,-1,-1,-1,-1,-1,-1,-1,-1,-1,-1],"loss_changes":[2.6758106E0,4.8769226E0,1.1926469E0,6.130045E0,1.101971E0,1.3670241E0,2.0135753E0,1.3862994E0,0E0,1.5461271E0,2.143112E0,1.7330618E0,0E0,1.9089512E0,1.034875E0,0E0,0E0,0E0,0E0,0E0,0E0,0E0,0E0,0E0,0E0,0E0,0E0],"parents":[2147483647,0,0,1,1,2,2,3,3,4,4,5,5,6,6,7,7,9,9,10,10,11,11,13,13,14,14],"right_children":[2,4,6,8,10,12,14,16,-1,18,20,22,-1,24,26,-1,-1,-1,-1,-1,-1,-1,-1,-1,-1,-1,-1],"split_conditions":[5.009411E0,2.5392265E1,-3.1987896E1,3.9559913E-1,8.8429457E-1,1.4E1,-2.2482437E1,1.6E1,-9.455837E-2,7.9315734E-1,3.8868076E-1,4.004348E-1,1.0165471E-1,5.6749444E0,-1.9517466E1,-2.1964518E-2,4.3767076E-2,-3.9067874E-3,4.6220798E-2,2.8508488E-2,-7.2915845E-2,5.8428854E-2,-6.405076E-2,1.7263709E-2,-1.0556393E-1,6.1938852E-2,2.8926625E-3],"split_indices":[2,0,0,3,3,1,0,1,0,3,2,3,0,2,0,0,0,0,0,0,0,0,0,0,0,0,0],"split_type":[0,0,0,0,0,0,0,0,0,0,0,0,0,0,0,0,0,0,0,0,0,0,0,0,0,0,0],"sum_hessian":[1.5934839E2,8.020952E1,7.913887E1,3.0234571E1,4.9974945E1,4.252608E0,7.488626E1,1.4884838E1,1.5349734E1,4.2874146E1,7.100798E0,2.629454E0,1.6231538E0,3.930807E0,7.095545E1,1.156415E1,3.3206882E0,3.6502483E1,6.371665E0,2.6895185E0,4.4112797E0,1.412894E0,1.2165599E0,1.6654867E0,2.2653203E0,2.1092992E0,6.884615E1],"tree_param":{"num_deleted":"0","num_feature":"4","num_nodes":"27","size_leaf_vector":"1"}},{"base_weights":[-7.8047186E-2,-1.7925219E-1,7.110037E-2,-4.1006786E-1,-1.1833066E-3,-5.160628E-1,1.1152196E-1,-8.0901957E-1,-7.3758796E-2,1.7991686E-1,-1.10601075E-1,2.3124443E-2,-1.0157346E-1,4.7903234E-1,2.5902897E-2,-9.290247E-2,-4.144558E-2,1.4396726E-2,-5.1201165E-2,3.3216238E-2,-7.8089006E-2,-3.501828E-2,1.9059991E-2,6.6482625E-3,9.4271205E-2,-6.43635E-2,1.5508932E-2],"categories":[],"categories_nodes":[],"categories_segments":[],"categories_sizes":[],"default_left":[0,0,0,0,0,0,0,0,0,0,0,0,0,0,0,0,0,0,0,0,0,0,0,0,0,0,0],"id":42,"left_children":[1,3,5,7,9,11,13,15,17,19,21,-1,-1,23,25,-1,-1,-1,-1,-1,-1,-1,-1,-1,-1,-1,-1],"loss_changes":[2.4077892E0,3.8963835E0,1.5969069E0,5.4799237E0,1.1003281E0,1.8611188E0,1.9228488E0,5.0440884E-1,2.3163378E0,3.3189683E0,2.5641413E0,0E0,0E0,2.1493998E0,4.505834E0,0E0,0E0,0E0,0E0,0E0,0E0,0E0,0E0,0E0,0E0,0E0,0E0],"parents":[2147483647,0,0,1,1,2,2,3,3,4,4,5,5,6,6,7,7,8,8,9,9,10,10,13,13,14,14],"right_children":[2,4,6,8,10,12,14,16,18,20,22,-1,-1,24,26,-1,-1,-1,-1,-1,-1,-1,-1,-1,-1,-1,-1],"split_conditions":[1E1,2.4992378E1,-1.7819324E0,5.3725305E0,5.600034E-1,3.4898207E-1,4.6391144E-1,5.009411E0,5.342286E-1,8E0,7.9156053E-1,2.3124443E-2,-1.0157346E-1,2.7849306E1,1.8117545E0,-9.290247E-2,-4.144558E-2,1.4396726E-2,-5.1201165E-2,3.3216238E-2,-7.8089006E-2,-3.501828E-2,1.9059991E-2,6.6482625E-3,9.4271205E-2,-6.43635E-2,1.5508932E-2],"split_indices":[1,0,2,2,3,3,2,2,3,1,3,0,0,0,2,0,0,0,0,0,0,0,0,0,0,0,0],"split_type":[0,0,0,0,0,0,0,0,0,0,0,0,0,0,0,0,0,0,0,0,0,0,0,0,0,0,0],"sum_hessian":[1.5767024E2,9.3811806E1,6.3858433E1,4.0287567E1,5.3524235E1,3.355114E0,6.050332E1,1.7784662E1,2.2502907E1,1.9916166E1,3.360807E1,1.5596759E0,1.795438E0,1.0563922E1,4.9939396E1,1.2598357E1,5.186304E0,1.5482585E1,7.0203223E0,1.7756786E1,2.1593792E0,1.862819E1,1.4979882E1,6.1952252E0,4.3686967E0,7.433158E0,4.2506237E1],"tree_param":{"num_deleted":"0","num_feature":"4","num_nodes":"27","size_leaf_vector":"1"}},{"base_weights":[-7.3107444E-2,9.232896E-2,-8.699072E-2,-2.1916986E-1,4.184939E-2,-5.0445664E-1,-6.68751E-2,4.2022827E-1,1.947943E-3,-8.234577E-3,-9.266056E-2,-7.8031234E-2,1.1474958E-3,-2.3953128E-4,1.2053376E-1,-2.3799311E-2,8.929183E-3],"categories":[],"categories_nodes":[],"categories_segments":[],"categories_sizes":[],"default_left":[0,0,0,0,0,0,0,0,0,0,0,0,0,0,0,0,0],"id":43,"left_children":[1,-1,3,5,7,9,11,13,15,-1,-1,-1,-1,-1,-1,-1,-1],"loss_changes":[2.2523508E0,0E0,2.6619577E0,3.313898E0,1.2028098E0,4.674942E0,2.881343E0,2.5247178E0,1.5536851E0,0E0,0E0,0E0,0E0,0E0,0E0,0E0,0E0],"parents":[2147483647,0,0,2,2,3,3,4,4,5,5,6,6,7,7,8,8],"right_children":[2,-1,4,6,8,10,12,14,16,-1,-1,-1,-1,-1,-1,-1,-1],"split_conditions":[-4.692303E0,9.232896E-2,5.009411E0,2.4992378E1,5.168074E0,3.9559913E-1,-2.0092072E0,8.2673943E-1,-9.160503E0,-8.234577E-3,-9.266056E-2,-7.8031234E-2,1.1474958E-3,-2.3953128E-4,1.2053376E-1,-2.3799311E-2,8.929183E-3],"split_indices":[2,0,2,0,2,3,2,3,0,0,0,0,0,0,0,0,0],"split_type":[0,0,0,0,0,0,0,0,0,0,0,0,0,0,0,0,0],"sum_hessian":[1.5601535E2,1.2438111E0,1.5477153E2,7.604976E1,7.872177E1,2.5663372E1,5.038639E1,6.6003237E0,7.2121445E1,1.3429823E1,1.2233549E1,4.0993514E0,4.628704E1,4.938749E0,1.6615748E0,1.8787048E1,5.3334396E1],"tree_param":{"num_deleted":"0","num_feature":"4","num_nodes":"17","size_leaf_vector":"1"}},{"base_weights":[-6.6593744E-2,1.1362945E-1,-1.4073473E-1,-1.6218838E-1,2.7714208E-1,-3.2014388E-1,1.4569981E-4,-8.53846E-2,1.2589385E-1,8.147077E-1,1.22786686E-1,-9.186111E-2,-1.2141861E-1,-8.331805E-2,2.8591284E-1,1.1406358E-1,-9.281783E-3,3.379662E-2,1.18325174E-1,-7.77299E-2,2.5414532E-2,7.950487E-3,-4.1517615E-2,1.18296435E-2,-2.1337485E-2,5.3485274E-2,-1.2907514E-2],"categories":[],"categories_nodes":[],"categories_segments":[],"categories_sizes":[],"default_left":[0,0,0,0,0,0,0,0,0,0,0,0,0,0,0,0,0,0,0,0,0,0,0,0,0,0,0],"id":44,"left_children":[1,3,5,7,9,11,13,-1,15,17,19,-1,21,23,25,-1,-1,-1,-1,-1,-1,-1,-1,-1,-1,-1,-1],"loss_changes":[2.0972385E0,2.117434E0,2.8006983E0,3.641077E0,2.324475E0,5.6850076E0,1.5280509E0,0E0,3.0778227E0,7.1419287E-1,3.0207982E0,0E0,2.2606168E0,1.3254364E0,1.5651133E0,0E0,0E0,0E0,0E0,0E0,0E0,0E0,0E0,0E0,0E0,0E0,0E0],"parents":[2147483647,0,0,1,1,2,2,3,3,4,4,5,5,6,6,8,8,9,9,10,10,12,12,13,13,14,14],"right_children":[2,4,6,8,10,12,14,-1,16,18,20,-1,22,24,26,-1,-1,-1,-1,-1,-1,-1,-1,-1,-1,-1,-1],"split_conditions":[4.0576732E-1,3.0251294E-1,2.3251472E1,-1.129548E1,-1.0933601E1,5.009411E0,5.956339E0,-8.53846E-2,-1.2458377E0,3.69885E-1,-1.1095378E0,-9.186111E-2,1.4818956E0,1.0972469E0,7.3535323E0,1.1406358E-1,-9.281783E-3,3.379662E-2,1.18325174E-1,-7.77299E-2,2.5414532E-2,7.950487E-3,-4.1517615E-2,1.18296435E-2,-2.1337485E-2,5.3485274E-2,-1.2907514E-2],"split_indices":[3,3,0,0,0,2,2,0,2,3,2,0,0,2,2,0,0,0,0,0,0,0,0,0,0,0,0],"split_type":[0,0,0,0,0,0,0,0,0,0,0,0,0,0,0,0,0,0,0,0,0,0,0,0,0,0,0],"sum_hessian":[1.5475954E2,4.4953403E1,1.0980613E2,1.6734037E1,2.8219364E1,4.7738895E1,6.2067234E1,4.343005E0,1.2391033E1,5.3408675E0,2.2878496E1,1.0997394E1,3.67415E1,4.858539E1,1.3481849E1,1.4497013E0,1.0941332E1,3.16444E0,2.1764278E0,2.2874212E0,2.0591074E1,2.2251402E1,1.4490101E1,1.9087032E1,2.9498356E1,8.246288E0,5.2355604E0],"tree_param":{"num_deleted":"0","num_feature":"4","num_nodes":"27","size_leaf_vector":"1"}},{"base_weights":[-6.072585E-2,-1.5687871E-1,7.6577894E-2,-3.656049E-1,-6.875681E-3,1.718617E-1,-1.6203818E-1,-9.105132E-2,-1.4104174E-1,5.878023E-2,-3.9609607E-2,7.79285E-2,8.1695735E-1,-7.24232E-1,2.2754906E-2,1.4185475E-3,-5.1849585E-2,-8.244662E-2,-2.6773333E-4,1.3657908E-2,-7.567002E-2,1.0751384E-1,4.4172075E-2,-8.948343E-2,-4.9761506E-3,-4.4966713E-2,2.0426165E-2],"categories":[],"categories_nodes":[],"categories_segments":[],"categories_sizes":[],"default_left":[0,0,0,0,0,0,0,0,0,0,0,0,0,0,0,0,0,0,0,0,0,0,0,0,0,0,0],"id":45,"left_children":[1,3,5,7,9,11,13,-1,15,-1,17,19,21,23,25,-1,-1,-1,-1,-1,-1,-1,-1,-1,-1,-1,-1],"loss_changes":[2.0471447E0,2.8463352E0,1.486646E0,4.524965E0,1.0737041E0,2.744195E0,1.9721301E0,0E0,1.6545507E0,0E0,1.5074983E0,2.1374407E0,8.5457325E-2,4.9482274E-1,1.3898151E0,0E0,0E0,0E0,0E0,0E0,0E0,0E0,0E0,0E0,0E0,0E0,0E0],"parents":[2147483647,0,0,1,1,2,2,3,3,4,4,5,5,6,6,8,8,10,10,11,11,12,12,13,13,14,14],"right_children":[2,4,6,8,10,12,14,-1,16,-1,18,20,22,24,26,-1,-1,-1,-1,-1,-1,-1,-1,-1,-1,-1,-1],"split_conditions":[1E1,2.4992378E1,7.850618E-1,5.009411E0,-3.0632243E0,7.4695945E-1,8.2046473E-1,-9.105132E-2,5E0,5.878023E-2,-2.0899189E0,2.9E1,7.6561433E-1,1.8E1,1.9402053E0,1.4185475E-3,-5.1849585E-2,-8.244662E-2,-2.6773333E-4,1.3657908E-2,-7.567002E-2,1.0751384E-1,4.4172075E-2,-8.948343E-2,-4.9761506E-3,-4.4966713E-2,2.0426165E-2],"split_indices":[1,0,3,2,2,3,3,0,1,0,2,1,3,1,2,0,0,0,0,0,0,0,0,0,0,0,0],"split_type":[0,0,0,0,0,0,0,0,0,0,0,0,0,0,0,0,0,0,0,0,0,0,0,0,0,0,0],"sum_hessian":[1.5315154E2,8.998976E1,6.316177E1,3.7028305E1,5.2961456E1,4.5337444E1,1.7824324E1,9.914913E0,2.711339E1,1.8784598E0,5.1082996E1,4.0553238E1,4.7842073E0,3.6873105E0,1.4137013E1,1.9894314E1,7.219077E0,1.3374206E0,4.9745575E1,3.8672054E1,1.8811824E0,1.7292035E0,3.0550041E0,2.6821575E0,1.005153E0,3.5138426E0,1.0623171E1],"tree_param":{"num_deleted":"0","num_feature":"4","num_nodes":"27","size_leaf_vector":"1"}},{"base_weights":[-5.6604423E-2,-9.923243E-2,2.2756645E-1,1.5688077E-1,-1.7012984E-1,3.2134438E-1,-7.161284E-2,-1.1407503E-1,4.6832713E-1,-2.7193356E-1,1.19330935E-1,7.940325E-1,1.253352E-1,-7.321898E-2,1.3877325E-2,-3.1900052E-2,7.431006E-2,-5.5677217E-2,-7.6781088E-3,5.0560392E-2,-4.20884E-3,-4.4220675E-2,1.2929645E-1,-4.765558E-2,3.6379844E-2],"categories":[],"categories_nodes":[],"categories_segments":[],"categories_sizes":[],"default_left":[0,0,0,0,0,0,0,0,0,0,0,0,0,0,0,0,0,0,0,0,0,0,0,0,0],"id":46,"left_children":[1,3,5,7,9,11,-1,13,15,17,19,21,23,-1,-1,-1,-1,-1,-1,-1,-1,-1,-1,-1,-1],"loss_changes":[1.8789443E0,2.4589672E0,2.026025E0,2.548089E0,3.1381226E0,1.67467E0,0E0,2.6979842E0,3.2547598E0,4.3082604E0,1.7744157E0,3.9182508E0,2.2866247E0,0E0,0E0,0E0,0E0,0E0,0E0,0E0,0E0,0E0,0E0,0E0,0E0],"parents":[2147483647,0,0,1,1,2,2,3,3,4,4,5,5,7,7,8,8,9,9,10,10,11,11,12,12],"right_children":[2,4,6,8,10,12,-1,14,16,18,20,22,24,-1,-1,-1,-1,-1,-1,-1,-1,-1,-1,-1,-1],"split_conditions":[1.7E1,3.6350623E-1,3.2E1,3.0251294E-1,3.408211E1,5.0033355E-1,-7.161284E-2,3E0,2.2365764E-1,5.009411E0,1.0972469E0,3.1207064E-1,6.397807E-1,-7.321898E-2,1.3877325E-2,-3.1900052E-2,7.431006E-2,-5.5677217E-2,-7.6781088E-3,5.0560392E-2,-4.20884E-3,-4.4220675E-2,1.2929645E-1,-4.765558E-2,3.6379844E-2],"split_indices":[1,3,1,3,0,3,0,1,2,2,2,3,3,0,0,0,0,0,0,0,0,0,0,0,0],"split_type":[0,0,0,0,0,0,0,0,0,0,0,0,0,0,0,0,0,0,0,0,0,0,0,0,0],"sum_hessian":[1.5224565E2,1.3295247E2,1.9293182E1,2.8561771E1,1.043907E2,1.8149128E1,1.1440536E0,1.5612634E1,1.2949138E1,7.727392E1,2.7116783E1,4.4255786E0,1.372355E1,3.982128E0,1.1630506E1,3.3083966E0,9.640741E0,3.0664268E1,4.660965E1,7.363602E0,1.9753181E1,1.3052244E0,3.1203542E0,3.6109412E0,1.0112609E1],"tree_param":{"num_deleted":"0","num_feature":"4","num_nodes":"25","size_leaf_vector":"1"}},{"base_weights":[-5.1832814E-2,8.535086E-2,-6.5168485E-2,-5.556193E-1,-3.7782893E-2,3.207022E-2,-7.634437E-1,-2.3943725E-1,4.461687E-2,1.1771156E-2,-9.7966895E-2,-4.5138698E-2,2.161373E-2,-6.240228E-3,1.8365428E-2],"categories":[],"categories_nodes":[],"categories_segments":[],"categories_sizes":[],"default_left":[0,0,0,0,0,0,0,0,0,0,0,0,0,0,0],"id":47,"left_children":[1,-1,3,5,7,-1,9,11,13,-1,-1,-1,-1,-1,-1],"loss_changes":[1.8894848E0,0E0,2.001998E0,1.6822112E0,2.3988638E0,0E0,1.3871474E0,4.1385145E0,1.5422181E0,0E0,0E0,0E0,0E0,0E0,0E0],"parents":[2147483647,0,0,2,2,3,3,4,4,6,6,7,7,8,8],"right_children":[2,-1,4,6,8,-1,10,12,14,-1,-1,-1,-1,-1,-1],"split_conditions":[-4.692303E0,8.535086E-2,-1.7819324E0,2.7933988E-1,3E0,3.207022E-2,2E0,6.10806E0,2.4992378E1,1.1771156E-2,-9.7966895E-2,-4.5138698E-2,2.161373E-2,-6.240228E-3,1.8365428E-2],"split_indices":[2,0,2,3,1,0,1,2,0,0,0,0,0,0,0],"split_type":[0,0,0,0,0,0,0,0,0,0,0,0,0,0,0],"sum_hessian":[1.5089369E2,1.2758511E0,1.4961783E2,6.8924065E0,1.4272543E2,1.2171168E0,5.675289E0,4.084962E1,1.0187581E2,1.208017E0,4.4672723E0,2.7885483E1,1.296414E1,5.787768E1,4.3998123E1],"tree_param":{"num_deleted":"0","num_feature":"4","num_nodes":"15","size_leaf_vector":"1"}},{"base_weights":[-4.6958197E-2,7.875529E-2,-5.9605554E-2,-5.2301496E-1,-3.433699E-2,1.6587788E-2,-9.269465E-2,-2.1935053E-1,4.0306106E-2,6.709046E-2,-4.6758424E-2,-4.164863E-2,1.9605583E-2,2.0700423E-2,-4.4144676E-3],"categories":[],"categories_nodes":[],"categories_segments":[],"categories_sizes":[],"default_left":[0,0,0,0,0,0,0,0,0,0,0,0,0,0,0],"id":48,"left_children":[1,-1,3,5,7,9,-1,11,13,-1,-1,-1,-1,-1,-1],"loss_changes":[1.6412444E0,0E0,1.7353414E0,1.6875875E0,1.9844794E0,1.6654488E0,0E0,3.462141E0,1.4560333E0,0E0,0E0,0E0,0E0,0E0,0E0],"parents":[2147483647,0,0,2,2,3,3,4,4,5,5,7,7,8,8],"right_children":[2,-1,4,6,8,10,-1,12,14,-1,-1,-1,-1,-1,-1],"split_conditions":[-4.692303E0,7.875529E-2,-1.7819324E0,4.7848636E-1,3E0,-3.0632243E0,-9.269465E-2,6.10806E0,4.8140743E-1,6.709046E-2,-4.6758424E-2,-4.164863E-2,1.9605583E-2,2.0700423E-2,-4.4144676E-3],"split_indices":[2,0,2,3,1,2,0,2,3,0,0,0,0,0,0],"split_type":[0,0,0,0,0,0,0,0,0,0,0,0,0,0,0],"sum_hessian":[1.5005621E2,1.3255006E0,1.4873071E2,6.6720114E0,1.420587E2,3.2668443E0,3.405167E0,4.0280098E1,1.017786E2,1.2252927E0,2.0415516E0,2.7314903E1,1.2965194E1,3.373588E1,6.8042725E1],"tree_param":{"num_deleted":"0","num_feature":"4","num_nodes":"15","size_leaf_vector":"1"}},{"base_weights":[-4.2649418E-2,-1.3885602E-1,6.295557E-2,-4.2171636E-1,-1.834244E-2,1.24798924E-1,-1.3397536E-1,-7.518611E-2,-8.9956455E-2,8.6094655E-2,-2.8015602E-1,2.6999402E-1,-1.5402317E-1,-4.7740823E-1,5.323614E-1,1.1987872E-2,-7.0364304E-2,-9.788126E-3,2.5961433E-2,-8.349369E-2,1.7386823E-3,1.4298742E-2,1.220387E-1,-9.869732E-2,1.1949627E-2,-9.127607E-2,-7.813707E-3,1.14684224E-1,-6.437894E-3],"categories":[],"categories_nodes":[],"categories_segments":[],"categories_sizes":[],"default_left":[0,0,0,0,0,0,0,0,0,0,0,0,0,0,0,0,0,0,0,0,0,0,0,0,0,0,0,0,0],"id":49,"left_children":[1,3,5,7,9,11,13,15,-1,17,19,21,23,25,27,-1,-1,-1,-1,-1,-1,-1,-1,-1,-1,-1,-1,-1,-1],"loss_changes":[1.5351831E0,2.6829135E0,8.9738077E-1,3.829719E0,1.5661287E0,2.2903318E0,4.3191776E0,1.8905857E0,0E0,1.3367853E0,2.7078476E0,4.27829E0,4.596491E0,2.0578694E0,2.4625397E0,0E0,0E0,0E0,0E0,0E0,0E0,0E0,0E0,0E0,0E0,0E0,0E0,0E0,0E0],"parents":[2147483647,0,0,1,1,2,2,3,3,4,4,5,5,6,6,7,7,9,9,10,10,11,11,12,12,13,13,14,14],"right_children":[2,4,6,8,10,12,14,16,-1,18,20,22,24,26,28,-1,-1,-1,-1,-1,-1,-1,-1,-1,-1,-1,-1,-1,-1],"split_conditions":[2.4992378E1,5.009411E0,4.020409E1,3.9559913E-1,6.5564237E0,7.673035E-1,7.8794104E-1,8.939634E0,-8.9956455E-2,-9.160503E0,1.1418914E1,7.243558E-1,8.102284E-1,4.5428993E1,5E0,1.1987872E-2,-7.0364304E-2,-9.788126E-3,2.5961433E-2,-8.349369E-2,1.7386823E-3,1.4298742E-2,1.220387E-1,-9.869732E-2,1.1949627E-2,-9.127607E-2,-7.813707E-3,1.14684224E-1,-6.437894E-3],"split_indices":[0,2,0,3,0,3,3,0,0,0,0,3,3,0,1,0,0,0,0,0,0,0,0,0,0,0,0,0,0],"split_type":[0,0,0,0,0,0,0,0,0,0,0,0,0,0,0,0,0,0,0,0,0,0,0,0,0,0,0,0,0],"sum_hessian":[1.492418E2,7.7931244E1,7.131056E1,2.2536335E1,5.5394905E1,5.45471E1,1.6763458E1,1.373396E1,8.802376E0,4.007872E1,1.5316188E1,3.58895E1,1.86576E1,1.1249137E1,5.514321E0,1.1098408E1,2.6355522E0,1.9664814E1,2.0413904E1,4.716316E0,1.0599871E1,3.2673588E1,3.2159128E0,3.96736E0,1.469024E1,4.7661796E0,6.4829574E0,2.2626057E0,3.2517152E0],"tree_param":{"num_deleted":"0","num_feature":"4","num_nodes":"29","size_leaf_vector":"1"}},{"base_weights":[-4.005498E-2,-8.297971E-2,1.8924649E-1,-2.1814086E-1,5.2360184E-2,7.296274E-1,-2.4284132E-2,-5.319138E-1,-8.534505E-2,3.623444E-1,-9.2457037E-4,-1.8204546E-2,1.0327117E0,5.67858E-1,-1.5702479E-1,-3.2037683E-3,-8.91198E-2,4.079516E-3,-4.0423315E-2,6.49956E-3,7.2835885E-2,-2.1289993E-2,8.00248E-3,1.22035466E-1,2.301715E-2,8.293E-3,7.814644E-2,-8.5051626E-2,2.1816536E-3],"categories":[],"categories_nodes":[],"categories_segments":[],"categories_sizes":[],"default_left":[0,0,0,0,0,0,0,0,0,0,0,0,0,0,0,0,0,0,0,0,0,0,0,0,0,0,0,0,0],"id":50,"left_children":[1,3,5,7,9,11,13,15,17,19,21,-1,23,25,27,-1,-1,-1,-1,-1,-1,-1,-1,-1,-1,-1,-1,-1,-1],"loss_changes":[1.4851607E0,2.3245056E0,2.7692068E0,2.5988207E0,1.0572674E0,2.0630643E0,1.5086735E0,3.3262987E0,1.8579646E0,9.744493E-1,9.710992E-1,0E0,5.086193E-1,3.001902E-1,1.9453906E0,0E0,0E0,0E0,0E0,0E0,0E0,0E0,0E0,0E0,0E0,0E0,0E0,0E0,0E0],"parents":[2147483647,0,0,1,1,2,2,3,3,4,4,5,5,6,6,7,7,8,8,9,9,10,10,12,12,13,13,14,14],"right_children":[2,4,6,8,10,12,14,16,18,20,22,-1,24,26,28,-1,-1,-1,-1,-1,-1,-1,-1,-1,-1,-1,-1,-1,-1],"split_conditions":[1.6E1,2.4992378E1,5.0033355E-1,5.009411E0,2.7017046E1,3.1207064E-1,-1.9517466E1,3.4898207E-1,6.9262543E0,7.0756507E-1,3.0782846E1,-1.8204546E-2,2.7E1,8.0054295E-1,-9.160503E0,-3.2037683E-3,-8.91198E-2,4.079516E-3,-4.0423315E-2,6.49956E-3,7.2835885E-2,-2.1289993E-2,8.00248E-3,1.22035466E-1,2.301715E-2,8.293E-3,7.814644E-2,-8.5051626E-2,2.1816536E-3],"split_indices":[1,0,3,2,0,3,0,3,0,3,0,0,1,3,0,0,0,0,0,0,0,0,0,0,0,0,0,0,0],"split_type":[0,0,0,0,0,0,0,0,0,0,0,0,0,0,0,0,0,0,0,0,0,0,0,0,0,0,0,0,0],"sum_hessian":[1.4829405E2,1.2544849E2,2.284556E1,6.245959E1,6.29889E1,5.7859974E0,1.7059563E1,1.7679815E1,4.4779778E1,8.388518E0,5.460038E1,1.5432582E0,4.242739E0,2.5236912E0,1.45358715E1,7.848826E0,9.830989E0,3.2712143E1,1.2067632E1,5.278147E0,3.1103709E0,1.4638285E1,3.9962097E1,3.0167692E0,1.2259699E0,1.1962376E0,1.3274536E0,2.2100966E0,1.2325775E1],"tree_param":{"num_deleted":"0","num_feature":"4","num_nodes":"29","size_leaf_vector":"1"}},{"base_weights":[-3.6084864E-2,7.447278E-2,-4.8315782E-2,-5.2748257E-1,-2.6669508E-2,2.8904507E-2,-9.381468E-2,-6.646033E-2,2.2302312E-1,-1.2835828E-2,1.490594E-2,4.7530644E-2,-1.779473E-2],"categories":[],"categories_nodes":[],"categories_segments":[],"categories_sizes":[],"default_left":[0,0,0,0,0,0,0,0,0,0,0,0,0],"id":51,"left_children":[1,-1,3,5,7,-1,-1,9,11,-1,-1,-1,-1],"loss_changes":[1.4535862E0,0E0,1.5115664E0,2.3851066E0,1.4235215E0,0E0,0E0,1.6608657E0,2.0792718E0,0E0,0E0,0E0,0E0],"parents":[2147483647,0,0,2,2,3,3,4,4,7,7,8,8],"right_children":[2,-1,4,6,8,-1,-1,10,12,-1,-1,-1,-1],"split_conditions":[-4.692303E0,7.447278E-2,-2.0092072E0,3.6350623E-1,1.7E1,2.8904507E-2,-9.381468E-2,3.408211E1,2.2E1,-1.2835828E-2,1.490594E-2,4.7530644E-2,-1.779473E-2],"split_indices":[2,0,2,3,1,0,0,0,1,0,0,0,0],"split_type":[0,0,0,0,0,0,0,0,0,0,0,0,0],"sum_hessian":[1.4743938E2,1.3502686E0,1.4608911E2,5.3042717E0,